{"learner":{"attributes":{"scikit_learn":"{\"_estimator_type\": \"regressor\"}"},"feature_names":["lag_1","lag_3","lag_7","lag_14","lag_30","MA_7","MA_30","std_7","month","day_of_week","quarter"],"feature_types":["float","float","float","float","float","float","float","float","int","int","int"],"gradient_booster":{"model":{"cats":{"enc":[],"feature_segments":[],"sorted_idx":[]},"gbtree_model_param":{"num_parallel_tree":"1","num_trees":"200"},"iteration_indptr":[0,1,2,3,4,5,6,7,8,9,10,11,12,13,14,15,16,17,18,19,20,21,22,23,24,25,26,27,28,29,30,31,32,33,34,35,36,37,38,39,40,41,42,43,44,45,46,47,48,49,50,51,52,53,54,55,56,57,58,59,60,61,62,63,64,65,66,67,68,69,70,71,72,73,74,75,76,77,78,79,80,81,82,83,84,85,86,87,88,89,90,91,92,93,94,95,96,97,98,99,100,101,102,103,104,105,106,107,108,109,110,111,112,113,114,115,116,117,118,119,120,121,122,123,124,125,126,127,128,129,130,131,132,133,134,135,136,137,138,139,140,141,142,143,144,145,146,147,148,149,150,151,152,153,154,155,156,157,158,159,160,161,162,163,164,165,166,167,168,169,170,171,172,173,174,175,176,177,178,179,180,181,182,183,184,185,186,187,188,189,190,191,192,193,194,195,196,197,198,199,200],"tree_info":[0,0,0,0,0,0,0,0,0,0,0,0,0,0,0,0,0,0,0,0,0,0,0,0,0,0,0,0,0,0,0,0,0,0,0,0,0,0,0,0,0,0,0,0,0,0,0,0,0,0,0,0,0,0,0,0,0,0,0,0,0,0,0,0,0,0,0,0,0,0,0,0,0,0,0,0,0,0,0,0,0,0,0,0,0,0,0,0,0,0,0,0,0,0,0,0,0,0,0,0,0,0,0,0,0,0,0,0,0,0,0,0,0,0,0,0,0,0,0,0,0,0,0,0,0,0,0,0,0,0,0,0,0,0,0,0,0,0,0,0,0,0,0,0,0,0,0,0,0,0,0,0,0,0,0,0,0,0,0,0,0,0,0,0,0,0,0,0,0,0,0,0,0,0,0,0,0,0,0,0,0,0,0,0,0,0,0,0,0,0,0,0,0,0,0,0,0,0,0,0],"trees":[{"base_weights":[-1.4111948E-1,-1.2894831E1,9.364084E0,-1.6110798E1,-4.769739E0,3.0979326E0,1.8328487E1,-7.3683923E-1,-1.2592659E0,-4.120143E0,-7.5445455E-1,2.9634535E-1,5.6883364E0,1.3542303E1,1.1036962E0,-2.7114484E-1,-3.220772E0,7.495951E-1,-8.424347E-1,4.5550175E0,3.7817127E-1,6.951682E-1,2.9571342E-1,-1.6811857E-1,-5.895894E-1,-6.2513393E-1,1.9681114E0,4.802568E0,1.2180176E0,-4.087448E-2,-3.3447265E-3,4.7798768E-2,-4.263234E-2,4.6517767E-2,1.3105921E-1,1.913238E-1,2.7932787E-1,7.731094E-2,-2.36969E-3],"categories":[],"categories_nodes":[],"categories_segments":[],"categories_sizes":[],"default_left":[0,0,0,0,0,0,0,0,0,0,0,0,0,0,0,0,0,0,0,0,0,0,0,0,0,0,0,0,0,0,0,0,0,0,0,0,0,0,0],"id":0,"left_children":[1,3,5,7,9,11,13,-1,-1,15,-1,17,19,21,-1,-1,23,25,-1,27,-1,-1,-1,-1,29,31,33,35,37,-1,-1,-1,-1,-1,-1,-1,-1,-1,-1],"loss_changes":[5.564254E4,5.0446426E3,1.4716533E4,1.3744375E3,3.199254E2,1.1304441E3,1.6371133E3,0E0,0E0,4.697528E1,0E0,6.0322455E2,1.3767944E2,5.548047E1,0E0,0E0,1.1057648E1,1.2686507E2,0E0,3.7932495E1,0E0,0E0,0E0,0E0,3.0268133E-1,1.3765128E1,2.4670578E1,1.612024E1,2.1498299E0,0E0,0E0,0E0,0E0,0E0,0E0,0E0,0E0,0E0,0E0],"parents":[2147483647,0,0,1,1,2,2,3,3,4,4,5,5,6,6,9,9,11,11,12,12,13,13,16,16,17,17,19,19,24,24,25,25,26,26,27,27,28,28],"right_children":[2,4,6,8,10,12,14,-1,-1,16,-1,18,20,22,-1,-1,24,26,-1,28,-1,-1,-1,-1,30,32,34,36,38,-1,-1,-1,-1,-1,-1,-1,-1,-1,-1],"split_conditions":[3.5669507E2,3.4987787E2,3.6955994E2,3.736618E2,2.3349438E0,3.6209756E2,3.764078E2,-7.3683923E-1,-1.2592659E0,3.5452258E2,-7.5445455E-1,3.623708E2,3.652391E2,2.4188867E0,1.1036962E0,-2.7114484E-1,1.2685641E0,3.595797E2,-8.424347E-1,2.1613598E0,3.7817127E-1,6.951682E-1,2.9571342E-1,-1.6811857E-1,3.555457E2,3.550781E2,3.602381E2,3.6331818E2,3.712259E2,-4.087448E-2,-3.3447265E-3,4.7798768E-2,-4.263234E-2,4.6517767E-2,1.3105921E-1,1.913238E-1,2.7932787E-1,7.731094E-2,-2.36969E-3],"split_indices":[5,5,5,4,7,5,1,0,0,5,0,1,1,7,0,0,7,5,0,7,0,0,0,0,1,3,5,5,4,0,0,0,0,0,0,0,0,0,0],"split_type":[0,0,0,0,0,0,0,0,0,0,0,0,0,0,0,0,0,0,0,0,0,0,0,0,0,0,0,0,0,0,0,0,0,0,0,0,0,0,0],"sum_hessian":[4.57E2,1.95E2,2.62E2,1.39E2,5.6E1,1.55E2,1.07E2,1.23E2,1.6E1,5.4E1,2E0,7.5E1,8E1,4.9E1,5.8E1,2E1,3.4E1,7.4E1,1E0,5.2E1,2.8E1,4.6E1,3E0,3.2E1,2E0,3.5E1,3.9E1,4.8E1,4E0,1E0,1E0,4E0,3.1E1,1.6E1,2.3E1,2.4E1,2.4E1,3E0,1E0],"tree_param":{"num_deleted":"0","num_feature":"11","num_nodes":"39","size_leaf_vector":"1"}},{"base_weights":[4.137039E-3,-1.210895E1,8.729257E0,-1.5853359E1,-4.4279256E0,3.5159242E0,1.7801859E1,-1.2648847E0,-7.124829E-1,-3.6678466E-1,-3.447427E0,9.507051E-1,5.700048E0,6.828119E-1,1.0788305E0,-1.9385697E-1,-2.6898513E0,-4.5636314E-1,1.7045718E0,6.13325E0,-8.2137376E-1,-1.1501669E0,-1.3956942E-1,-9.01202E-1,2.1185558E-1,1.0671313E0,2.7219913E0,4.6569986E0,3.9959916E-1,-8.300171E-2,-3.2608032E-3,-4.635935E-2,-1.2136078E-2,1.5042725E-2,-7.7713015E-3,5.516834E-2,-2.3101808E-3,4.6673074E-2,1.4387485E-1,1.7973168E-1,2.5798678E-1],"categories":[],"categories_nodes":[],"categories_segments":[],"categories_sizes":[],"default_left":[0,0,0,0,0,0,0,0,0,0,0,0,0,0,0,0,0,0,0,0,0,0,0,0,0,0,0,0,0,0,0,0,0,0,0,0,0,0,0,0,0],"id":1,"left_children":[1,3,5,7,9,11,13,-1,-1,-1,15,17,19,-1,-1,-1,21,23,25,27,-1,29,-1,31,33,35,37,39,-1,-1,-1,-1,-1,-1,-1,-1,-1,-1,-1,-1,-1],"loss_changes":[4.7453984E4,5.3368496E3,1.2282316E4,1.5478984E3,1.5432764E2,9.302412E2,1.1919707E3,0E0,0E0,0E0,5.522522E0,8.3515785E1,9.6346606E2,0E0,0E0,0E0,7.247925E-2,8.513915E0,3.0171051E1,2.0699365E2,0E0,1.5512822E0,0E0,6.5831184E-2,4.3901265E-1,1.3822746E0,2.5983734E0,9.22522E0,0E0,0E0,0E0,0E0,0E0,0E0,0E0,0E0,0E0,0E0,0E0,0E0,0E0],"parents":[2147483647,0,0,1,1,2,2,3,3,4,4,5,5,6,6,10,10,11,11,12,12,16,16,17,17,18,18,19,19,21,21,23,23,24,24,25,25,26,26,27,27],"right_children":[2,4,6,8,10,12,14,-1,-1,-1,16,18,20,-1,-1,-1,22,24,26,28,-1,30,-1,32,34,36,38,40,-1,-1,-1,-1,-1,-1,-1,-1,-1,-1,-1,-1,-1],"split_conditions":[3.575983E2,3.493539E2,3.708992E2,3.366662E2,3.52656E2,3.62302E2,3.775311E2,-1.2648847E0,-7.124829E-1,-3.6678466E-1,3.554547E2,3.594886E2,3.9456909E0,6.828119E-1,1.0788305E0,-1.9385697E-1,3.428876E2,3.585058E2,3.607714E2,3.656966E2,-8.2137376E-1,3.555654E2,-1.3956942E-1,3.581277E2,3.581811E2,3.650049E2,3.596219E2,3.634925E2,3.9959916E-1,-8.300171E-2,-3.2608032E-3,-4.635935E-2,-1.2136078E-2,1.5042725E-2,-7.7713015E-3,5.516834E-2,-2.3101808E-3,4.6673074E-2,1.4387485E-1,1.7973168E-1,2.5798678E-1],"split_indices":[0,0,0,0,0,0,0,0,0,0,0,0,7,0,0,0,4,0,0,0,0,0,0,3,4,2,2,0,0,0,0,0,0,0,0,0,0,0,0,0,0],"split_type":[0,0,0,0,0,0,0,0,0,0,0,0,0,0,0,0,0,0,0,0,0,0,0,0,0,0,0,0,0,0,0,0,0,0,0,0,0,0,0,0,0],"sum_hessian":[4.47E2,1.87E2,2.6E2,1.25E2,6.2E1,1.66E2,9.4E1,1.6E1,1.09E2,1.4E1,4.8E1,7.7E1,8.9E1,4.7E1,4.7E1,2.8E1,2E1,2.7E1,5E1,8.8E1,1E0,2E0,1.8E1,1.6E1,1.1E1,3.2E1,1.8E1,5.1E1,3.7E1,1E0,1E0,1.5E1,1E0,9E0,2E0,3.1E1,1E0,2E0,1.6E1,1.9E1,3.2E1],"tree_param":{"num_deleted":"0","num_feature":"11","num_nodes":"41","size_leaf_vector":"1"}},{"base_weights":[9.38402E-3,-1.1604889E1,8.553182E0,-1.4822978E1,-4.7801833E0,3.5189967E0,1.6755392E1,-1.1574993E0,-6.767771E-1,-3.9914746E0,-1.3130908E1,1.7553189E0,6.7680235E0,6.272831E-1,9.881917E-1,-3.1469944E-1,-3.2039382E0,-1.9982605E-1,-7.2076875E-1,1.374265E-2,3.0684135E0,4.891429E0,7.577599E0,-1.7402126E-1,-1.8605438E0,-5.0911075E-1,5.3602344E-1,3.2651956E0,2.1141358E-1,2.536997E-1,3.5567474E-2,4.1103584E-1,2.6258504E-1,-1.9331869E-2,-1.0903454E-1,4.079844E-2,-3.3333104E-2,3.404657E-2,-1.793747E-2,1.6727456E-1,3.5235595E-2,1.9965108E-2,-2.3473105E-3],"categories":[],"categories_nodes":[],"categories_segments":[],"categories_sizes":[],"default_left":[0,0,0,0,0,0,0,0,0,0,0,0,0,0,0,0,0,0,0,0,0,0,0,0,0,0,0,0,0,0,0,0,0,0,0,0,0,0,0,0,0,0,0],"id":2,"left_children":[1,3,5,7,9,11,13,-1,-1,15,17,19,21,-1,-1,-1,23,-1,-1,25,27,29,31,-1,33,35,37,39,41,-1,-1,-1,-1,-1,-1,-1,-1,-1,-1,-1,-1,-1,-1],"loss_changes":[4.495122E4,4.1459453E3,1.0718104E4,1.0803164E3,3.625243E2,9.2214844E2,1.0058594E3,0E0,0E0,8.681995E1,1.0527344E0,2.4465115E2,4.9531494E1,0E0,0E0,0E0,1.0610321E1,0E0,0E0,1.3107481E1,3.360437E1,1.165332E1,1.3668701E1,0E0,3.8755264E0,5.5544076E0,3.3561177E0,9.361328E0,2.6146E-1,0E0,0E0,0E0,0E0,0E0,0E0,0E0,0E0,0E0,0E0,0E0,0E0,0E0,0E0],"parents":[2147483647,0,0,1,1,2,2,3,3,4,4,5,5,6,6,9,9,10,10,11,11,12,12,16,16,19,19,20,20,21,21,22,22,24,24,25,25,26,26,27,27,28,28],"right_children":[2,4,6,8,10,12,14,-1,-1,16,18,20,22,-1,-1,-1,24,-1,-1,26,28,30,32,-1,34,36,38,40,42,-1,-1,-1,-1,-1,-1,-1,-1,-1,-1,-1,-1,-1,-1],"split_conditions":[3.5740732E2,3.48161E2,3.7117932E2,3.366662E2,2.3349438E0,3.6424606E2,3.7716107E2,-1.1574993E0,-6.767771E-1,3.5381595E2,3.496187E2,3.602381E2,3.65376E2,6.272831E-1,9.881917E-1,-3.1469944E-1,3.5597665E2,-1.9982605E-1,-7.2076875E-1,3.5883975E2,3.725358E2,3.679897E2,3.659742E2,-1.7402126E-1,3.551211E2,3.550781E2,3.652969E2,2.298318E0,3.607714E2,2.536997E-1,3.5567474E-2,4.1103584E-1,2.6258504E-1,-1.9331869E-2,-1.0903454E-1,4.079844E-2,-3.3333104E-2,3.404657E-2,-1.793747E-2,1.6727456E-1,3.5235595E-2,1.9965108E-2,-2.3473105E-3],"split_indices":[5,5,5,1,7,5,5,0,0,5,1,5,5,0,0,0,5,0,0,5,3,3,4,0,3,3,4,7,1,0,0,0,0,0,0,0,0,0,0,0,0,0,0],"split_type":[0,0,0,0,0,0,0,0,0,0,0,0,0,0,0,0,0,0,0,0,0,0,0,0,0,0,0,0,0,0,0,0,0,0,0,0,0,0,0,0,0,0,0],"sum_hessian":[4.51E2,1.91E2,2.6E2,1.29E2,6.2E1,1.62E2,9.8E1,1.5E1,1.14E2,5.8E1,4E0,1.06E2,5.6E1,4.3E1,5.5E1,1.3E1,4.5E1,1E0,3E0,4.6E1,6E1,1.9E1,3.7E1,3.6E1,9E0,2.3E1,2.3E1,5.6E1,4E0,1.8E1,1E0,2.7E1,1E1,2E0,7E0,2E0,2.1E1,2E1,3E0,5.4E1,2E0,2E0,2E0],"tree_param":{"num_deleted":"0","num_feature":"11","num_nodes":"43","size_leaf_vector":"1"}},{"base_weights":[-1.3217828E-1,-1.0873467E1,7.763964E0,-1.4352229E1,-3.9094198E0,3.069607E0,1.6142712E1,-1.1113757E0,-6.450528E-1,-3.1476566E-1,-3.0374665E0,7.747185E-1,5.277457E0,1.3608281E1,1.0905875E0,-1.5453978E-1,-5.769704E-2,-4.201893E-1,1.6855712E0,5.7062926E0,-8.007805E-1,5.677971E-1,7.7359056E-1,-8.149414E-1,2.3942667E-1,9.568029E-1,2.467796E0,1.9515698E-1,7.025E0,-4.1721642E-2,-9.165955E-3,-4.298401E-3,1.8278366E-2,2.4143219E-2,5.8347322E-2,4.176229E-2,1.2917517E-1,2.8348076E-1,3.8821223E-1],"categories":[],"categories_nodes":[],"categories_segments":[],"categories_sizes":[],"default_left":[0,0,0,0,0,0,0,0,0,0,0,0,0,0,0,0,0,0,0,0,0,0,0,0,0,0,0,0,0,0,0,0,0,0,0,0,0,0,0],"id":3,"left_children":[1,3,5,7,9,11,13,-1,-1,-1,15,17,19,21,-1,-1,-1,23,25,27,-1,-1,-1,29,31,33,35,-1,37,-1,-1,-1,-1,-1,-1,-1,-1,-1,-1],"loss_changes":[3.943847E4,4.716463E3,1.0491647E4,1.2103633E3,1.202641E2,8.7246265E2,1.0824883E3,0E0,0E0,0E0,1.5561523E0,9.430936E1,8.94937E2,1.13916016E2,0E0,0E0,0E0,1.0089741E1,2.5571793E1,1.794519E2,0E0,0E0,0E0,1.4250278E-1,6.471095E-1,2.1255913E0,2.1867828E0,0E0,5.0756836E0,0E0,0E0,0E0,0E0,0E0,0E0,0E0,0E0,0E0,0E0],"parents":[2147483647,0,0,1,1,2,2,3,3,4,4,5,5,6,6,10,10,11,11,12,12,13,13,17,17,18,18,19,19,23,23,24,24,25,25,26,26,28,28],"right_children":[2,4,6,8,10,12,14,-1,-1,-1,16,18,20,22,-1,-1,-1,24,26,28,-1,-1,-1,30,32,34,36,-1,38,-1,-1,-1,-1,-1,-1,-1,-1,-1,-1],"split_conditions":[3.575983E2,3.493539E2,3.708992E2,3.366662E2,3.54199E2,3.627058E2,3.808602E2,-1.1113757E0,-6.450528E-1,-3.1476566E-1,3.573989E2,3.596219E2,3.9456909E0,3.739507E2,1.0905875E0,-1.5453978E-1,-5.769704E-2,3.589001E2,3.607714E2,3.652391E2,-8.007805E-1,5.677971E-1,7.7359056E-1,3.585835E2,5.2665645E-1,4.908662E-1,3.596219E2,1.9515698E-1,3.670095E2,-4.1721642E-2,-9.165955E-3,-4.298401E-3,1.8278366E-2,2.4143219E-2,5.8347322E-2,4.176229E-2,1.2917517E-1,2.8348076E-1,3.8821223E-1],"split_indices":[0,0,0,0,0,0,0,0,0,0,0,0,7,2,0,0,0,0,0,0,0,0,0,0,7,7,2,0,0,0,0,0,0,0,0,0,0,0,0],"split_type":[0,0,0,0,0,0,0,0,0,0,0,0,0,0,0,0,0,0,0,0,0,0,0,0,0,0,0,0,0,0,0,0,0,0,0,0,0,0,0],"sum_hessian":[4.63E2,1.96E2,2.67E2,1.3E2,6.6E1,1.72E2,9.5E1,1.8E1,1.12E2,1.6E1,5E1,8.5E1,8.7E1,6.8E1,2.7E1,4.8E1,2E0,3.7E1,4.8E1,8.6E1,1E0,3.4E1,3.4E1,2.3E1,1.4E1,2.6E1,2.2E1,3.8E1,4.8E1,2.2E1,1E0,4E0,1E1,9E0,1.7E1,2E0,2E1,2E1,2.8E1],"tree_param":{"num_deleted":"0","num_feature":"11","num_nodes":"39","size_leaf_vector":"1"}},{"base_weights":[5.3490575E-2,-7.6473017E0,1.05263E1,-1.3286928E1,-1.8257033E0,6.74215E0,1.7937492E1,-1.19558115E1,-1.0497335E0,-1.393937E0,-1.0179387E0,4.560621E0,1.055571E1,7.774016E-1,1.0553743E0,-6.5274143E-1,-1.0717137E1,-3.4063523E0,5.220187E-1,3.0991633E0,5.396342E0,5.497033E-1,2.8274357E-1,-3.164673E-1,-5.5802524E-1,-2.2972062E-1,-2.6463573E0,-4.8810863E-1,1.3589149E0,1.6708177E-1,4.4521332E-1,2.7811167E-1,9.660721E-2,-1.3514602E-1,-5.0503034E-2,-1.4633687E-2,-6.4310715E-2,3.3252995E-2,9.750656E-2,3.2115683E-2,-3.6521913E-3],"categories":[],"categories_nodes":[],"categories_segments":[],"categories_sizes":[],"default_left":[0,0,0,0,0,0,0,0,0,0,0,0,0,0,0,0,0,0,0,0,0,0,0,0,0,0,0,0,0,0,0,0,0,0,0,0,0,0,0,0,0],"id":4,"left_children":[1,3,5,7,9,11,13,15,-1,17,-1,19,21,-1,-1,-1,23,25,27,29,31,-1,-1,-1,-1,-1,33,35,37,-1,39,-1,-1,-1,-1,-1,-1,-1,-1,-1,-1],"loss_changes":[3.8066145E4,8.905948E3,5.488074E3,1.1648594E3,1.0518851E3,1.0666577E3,1.793164E2,2.3449219E1,0E0,5.1458606E2,0E0,8.953516E1,4.094922E1,0E0,0E0,0E0,4.9975586E1,4.6531372E1,5.8993935E1,2.039154E1,2.0285767E1,0E0,0E0,0E0,0E0,0E0,1.1571655E0,4.614845E0,1.4291351E1,0E0,4.5551163E-1,0E0,0E0,0E0,0E0,0E0,0E0,0E0,0E0,0E0,0E0],"parents":[2147483647,0,0,1,1,2,2,3,3,4,4,5,5,6,6,7,7,9,9,11,11,12,12,16,16,17,17,18,18,19,19,20,20,26,26,27,27,28,28,30,30],"right_children":[2,4,6,8,10,12,14,16,-1,18,-1,20,22,-1,-1,-1,24,26,28,30,32,-1,-1,-1,-1,-1,34,36,38,-1,40,-1,-1,-1,-1,-1,-1,-1,-1,-1,-1],"split_conditions":[3.619739E2,3.4987787E2,3.744382E2,3.736618E2,3.623708E2,3.6817487E2,3.8202847E2,3.4413464E2,-1.0497335E0,3.575983E2,-1.0179387E0,3.638702E2,3.727494E2,7.774016E-1,1.0553743E0,-6.5274143E-1,3.347077E2,3.5452258E2,3.596902E2,3.6416E2,2.3349438E0,5.497033E-1,2.8274357E-1,-3.164673E-1,-5.5802524E-1,-2.2972062E-1,3.573989E2,6.0532916E-1,3.602381E2,1.6708177E-1,3.652391E2,2.7811167E-1,9.660721E-2,-1.3514602E-1,-5.0503034E-2,-1.4633687E-2,-6.4310715E-2,3.3252995E-2,9.750656E-2,3.2115683E-2,-3.6521913E-3],"split_indices":[5,5,5,4,1,5,5,5,0,1,0,5,3,0,0,0,4,5,5,3,7,0,0,0,0,0,1,7,5,0,3,0,0,0,0,0,0,0,0,0,0],"split_type":[0,0,0,0,0,0,0,0,0,0,0,0,0,0,0,0,0,0,0,0,0,0,0,0,0,0,0,0,0,0,0,0,0,0,0,0,0,0,0,0,0],"sum_hessian":[4.7E2,2.71E2,1.99E2,1.37E2,1.34E2,1.33E2,6.6E1,1.19E2,1.8E1,1.32E2,2E0,8.6E1,4.7E1,4.1E1,2.5E1,5.8E1,6.1E1,6.4E1,6.8E1,3.3E1,5.3E1,4.2E1,5E0,7E0,5.4E1,2.3E1,4.1E1,3.1E1,3.7E1,3E1,3E0,5E1,3E0,3.9E1,2E0,2.6E1,5E0,1.8E1,1.9E1,2E0,1E0],"tree_param":{"num_deleted":"0","num_feature":"11","num_nodes":"41","size_leaf_vector":"1"}},{"base_weights":[1.00059785E-1,-9.762734E0,7.216801E0,-1.2895729E1,-3.491316E0,2.7209651E0,1.4496371E1,-1.0053332E0,-1.1569149E1,-2.916424E-1,-2.6423483E0,7.262918E-1,5.5601225E0,1.1759497E1,9.1282654E-1,-6.360561E-1,-5.2442014E-1,-1.5091732E-1,-2.0533793E0,1.0356796E0,-7.553124E-1,3.9639094E0,3.264943E-1,5.9192806E-1,1.7143784E-1,-1.1564358E-1,-1.1298436E0,1.80038E-1,2.7674358E0,2.0850854E-1,1.6322327E0,5.1483153E-3,-8.217804E-2,-2.6005654E-2,3.73238E-2,1.6273499E-3,1.425942E-1,1.0152079E-1,1.0942078E-2],"categories":[],"categories_nodes":[],"categories_segments":[],"categories_sizes":[],"default_left":[0,0,0,0,0,0,0,0,0,0,0,0,0,0,0,0,0,0,0,0,0,0,0,0,0,0,0,0,0,0,0,0,0,0,0,0,0,0,0],"id":5,"left_children":[1,3,5,7,9,11,13,-1,15,-1,17,19,21,23,-1,-1,-1,-1,25,27,-1,29,-1,-1,-1,-1,31,33,35,-1,37,-1,-1,-1,-1,-1,-1,-1,-1],"loss_changes":[3.299001E4,3.8256973E3,8.895234E3,1.0205117E3,1.1777594E2,9.587046E2,8.55584E2,0E0,7.2597656E0,0E0,5.0961914E0,5.1038318E2,8.247241E1,9.0527344E-1,0E0,0E0,0E0,0E0,2.8987732E0,1.4767802E2,0E0,7.1404114E0,0E0,0E0,0E0,0E0,4.602441E0,2.7356522E1,7.528717E0,0E0,1.8068161E0,0E0,0E0,0E0,0E0,0E0,0E0,0E0,0E0],"parents":[2147483647,0,0,1,1,2,2,3,3,4,4,5,5,6,6,8,8,10,10,11,11,12,12,13,13,18,18,19,19,21,21,26,26,27,27,28,28,30,30],"right_children":[2,4,6,8,10,12,14,-1,16,-1,18,20,22,24,-1,-1,-1,-1,26,28,-1,30,-1,-1,-1,-1,32,34,36,-1,38,-1,-1,-1,-1,-1,-1,-1,-1],"split_conditions":[3.575983E2,3.493539E2,3.708992E2,3.366662E2,3.54199E2,3.6339703E2,3.788607E2,-1.0053332E0,3.435888E2,-2.916424E-1,3.554547E2,3.640349E2,3.656966E2,2.7315798E0,9.1282654E-1,-6.360561E-1,-5.2442014E-1,-1.5091732E-1,5.201928E-1,3.607714E2,-7.553124E-1,1.5225114E0,3.264943E-1,5.9192806E-1,1.7143784E-1,-1.1564358E-1,3.555654E2,3.593012E2,3.5993503E2,2.0850854E-1,3.6416E2,5.1483153E-3,-8.217804E-2,-2.6005654E-2,3.73238E-2,1.6273499E-3,1.425942E-1,1.0152079E-1,1.0942078E-2],"split_indices":[0,0,0,0,0,5,0,0,0,0,0,0,0,7,0,0,0,0,7,0,0,7,0,0,0,0,1,0,5,0,0,0,0,0,0,0,0,0,0],"split_type":[0,0,0,0,0,0,0,0,0,0,0,0,0,0,0,0,0,0,0,0,0,0,0,0,0,0,0,0,0,0,0,0,0,0,0,0,0,0,0],"sum_hessian":[4.68E2,1.96E2,2.72E2,1.3E2,6.6E1,1.69E2,1.03E2,1.8E1,1.12E2,1.6E1,5E1,1E2,6.9E1,6.2E1,4.1E1,4.9E1,6.3E1,2.8E1,2.2E1,9.9E1,1E0,2.8E1,4.1E1,6.1E1,1E0,1.6E1,6E0,6.7E1,3.2E1,2.5E1,3E0,2E0,4E0,3E1,3.7E1,1E0,3.1E1,2E0,1E0],"tree_param":{"num_deleted":"0","num_feature":"11","num_nodes":"39","size_leaf_vector":"1"}},{"base_weights":[-2.0125967E-1,-9.601812E0,6.858783E0,-1.2179905E1,-3.4262323E0,2.8239636E0,1.4168677E1,-9.50097E-1,-1.1082535E1,-2.9578894E-1,-2.6806004E0,7.2032183E-1,4.9192295E0,1.1635798E1,9.1481173E-1,-5.9569937E-1,-4.899747E-1,-1.5194991E-1,-2.0750892E0,1.1883254E-1,2.207262E0,3.8696294E0,3.284752E-1,4.8596898E-1,6.5344113E-1,-1.0141525E0,-1.09778516E-1,-7.403994E-1,5.660771E-1,1.5869141E-3,2.2965863E0,1.4116125E-1,2.0957254E-1,-7.055461E-2,4.4166567E-3,-3.8028464E-2,-7.920838E-3,5.0792694E-3,3.6380988E-2,1.1751795E-1,2.6495362E-2],"categories":[],"categories_nodes":[],"categories_segments":[],"categories_sizes":[],"default_left":[0,0,0,0,0,0,0,0,0,0,0,0,0,0,0,0,0,0,0,0,0,0,0,0,0,0,0,0,0,0,0,0,0,0,0,0,0,0,0,0,0],"id":6,"left_children":[1,3,5,7,9,11,13,-1,15,-1,17,19,21,23,-1,-1,-1,-1,25,27,29,31,-1,-1,-1,33,-1,35,37,-1,39,-1,-1,-1,-1,-1,-1,-1,-1,-1,-1],"loss_changes":[3.0794379E4,3.126588E3,7.775925E3,8.3749414E2,9.5519226E1,7.54579E2,7.6983984E2,0E0,1.4463867E1,0E0,4.1104736E0,7.7548645E1,1.23541504E2,4.0501953E1,0E0,0E0,0E0,0E0,4.5762634E-1,2.4629196E1,4.785286E0,6.6881104E0,0E0,0E0,0E0,1.8751273E0,0E0,1.3775921E-1,3.0775642E0,0E0,1.0345001E0,0E0,0E0,0E0,0E0,0E0,0E0,0E0,0E0,0E0,0E0],"parents":[2147483647,0,0,1,1,2,2,3,3,4,4,5,5,6,6,8,8,10,10,11,11,12,12,13,13,18,18,19,19,20,20,21,21,25,25,27,27,28,28,30,30],"right_children":[2,4,6,8,10,12,14,-1,16,-1,18,20,22,24,-1,-1,-1,-1,26,28,30,32,-1,-1,-1,34,-1,36,38,-1,40,-1,-1,-1,-1,-1,-1,-1,-1,-1,-1],"split_conditions":[3.573989E2,3.47464E2,3.712259E2,3.366662E2,3.52656E2,3.627058E2,3.804012E2,-9.50097E-1,3.444187E2,-2.9578894E-1,3.554731E2,3.607714E2,3.659742E2,3.740634E2,9.1481173E-1,-5.9569937E-1,-4.899747E-1,-1.5194991E-1,3.428876E2,3.589001E2,3.5993503E2,3.634925E2,3.284752E-1,4.8596898E-1,6.5344113E-1,3.555654E2,-1.09778516E-1,3.585835E2,3.594886E2,1.5869141E-3,3.65113E2,1.4116125E-1,2.0957254E-1,-7.055461E-2,4.4166567E-3,-3.8028464E-2,-7.920838E-3,5.0792694E-3,3.6380988E-2,1.1751795E-1,2.6495362E-2],"split_indices":[0,0,0,0,0,0,0,0,0,0,5,0,0,0,0,0,0,0,4,0,5,0,0,0,0,0,0,0,0,0,2,0,0,0,0,0,0,0,0,0,0],"split_type":[0,0,0,0,0,0,0,0,0,0,0,0,0,0,0,0,0,0,0,0,0,0,0,0,0,0,0,0,0,0,0,0,0,0,0,0,0,0,0,0,0],"sum_hessian":[4.62E2,1.98E2,2.64E2,1.39E2,5.9E1,1.71E2,9.3E1,1.7E1,1.22E2,1.2E1,4.7E1,8.6E1,8.5E1,6E1,3.3E1,6.9E1,5.3E1,2.7E1,2E1,6.2E1,2.4E1,5.4E1,3.1E1,2.9E1,3.1E1,3E0,1.7E1,2.1E1,4.1E1,1E0,2.3E1,1.5E1,3.9E1,2E0,1E0,2E1,1E0,1.1E1,3E1,2.2E1,1E0],"tree_param":{"num_deleted":"0","num_feature":"11","num_nodes":"41","size_leaf_vector":"1"}},{"base_weights":[7.254662E-2,-8.10898E0,7.4555807E0,-1.1562323E1,-2.8184538E0,3.1824462E0,1.3457041E1,-9.164505E-1,-1.0555354E1,-2.7300173E-1,-1.9223768E0,3.4113913E0,-7.446411E-1,1.1248559E1,8.771583E-1,-5.677457E-1,-4.6124315E-1,-1.2295514E-1,-9.008435E-1,1.5729103E0,5.2280264E0,4.7858915E-1,6.301974E-1,-6.630031E-1,-8.598023E-2,6.487592E-1,2.4545503E0,4.170837E0,3.3701834E-1,4.3060305E-3,-3.5238266E-2,8.060328E-3,4.2441558E-2,1.2470144E-1,2.583313E-2,2.1875532E-1,1.2184645E-1],"categories":[],"categories_nodes":[],"categories_segments":[],"categories_sizes":[],"default_left":[0,0,0,0,0,0,0,0,0,0,0,0,0,0,0,0,0,0,0,0,0,0,0,0,0,0,0,0,0,0,0,0,0,0,0,0,0],"id":7,"left_children":[1,3,5,7,9,11,13,-1,15,-1,17,19,-1,21,-1,-1,-1,-1,23,25,27,-1,-1,29,-1,31,33,35,-1,-1,-1,-1,-1,-1,-1,-1,-1],"loss_changes":[2.8269355E4,4.0233535E3,6.2658564E3,7.1958594E2,2.0017206E2,6.508507E2,7.2312305E2,0E0,2.1845703E1,0E0,3.506801E1,4.7271497E2,0E0,3.617285E1,0E0,0E0,0E0,0E0,3.7282562E0,5.7885696E1,8.700305E1,0E0,0E0,7.1768093E-1,0E0,3.472352E0,1.542099E0,5.2764893E0,0E0,0E0,0E0,0E0,0E0,0E0,0E0,0E0,0E0],"parents":[2147483647,0,0,1,1,2,2,3,3,4,4,5,5,6,6,8,8,10,10,11,11,13,13,18,18,19,19,20,20,23,23,25,25,26,26,27,27],"right_children":[2,4,6,8,10,12,14,-1,16,-1,18,20,-1,22,-1,-1,-1,-1,24,26,28,-1,-1,30,-1,32,34,36,-1,-1,-1,-1,-1,-1,-1,-1,-1],"split_conditions":[3.585058E2,3.47464E2,3.719385E2,3.366662E2,3.54199E2,3.9456909E0,3.804012E2,-9.164505E-1,3.444187E2,-2.7300173E-1,3.565009E2,3.634925E2,-7.446411E-1,3.744382E2,8.771583E-1,-5.677457E-1,-4.6124315E-1,-1.2295514E-1,3.585058E2,3.607714E2,3.670095E2,4.7858915E-1,6.301974E-1,3.573989E2,-8.598023E-2,3.594886E2,3.65113E2,3.659742E2,3.3701834E-1,4.3060305E-3,-3.5238266E-2,8.060328E-3,4.2441558E-2,1.2470144E-1,2.583313E-2,2.1875532E-1,1.2184645E-1],"split_indices":[0,0,0,0,0,7,0,0,0,0,0,0,0,5,0,0,0,0,2,0,0,0,0,0,0,0,2,3,0,0,0,0,0,0,0,0,0],"split_type":[0,0,0,0,0,0,0,0,0,0,0,0,0,0,0,0,0,0,0,0,0,0,0,0,0,0,0,0,0,0,0,0,0,0,0,0,0],"sum_hessian":[4.66E2,2.21E2,2.45E2,1.33E2,8.8E1,1.44E2,1.01E2,1.5E1,1.18E2,2.1E1,6.7E1,1.43E2,1E0,6.8E1,3.3E1,6.9E1,4.9E1,4.3E1,2.4E1,7.2E1,7.1E1,3.4E1,3.4E1,2E1,4E0,3.6E1,3.6E1,4.4E1,2.7E1,1E0,1.9E1,1.1E1,2.5E1,3.5E1,1E0,3.8E1,6E0],"tree_param":{"num_deleted":"0","num_feature":"11","num_nodes":"37","size_leaf_vector":"1"}},{"base_weights":[1.0770538E-1,-8.620276E0,6.094019E0,-1.102272E1,-3.0992117E0,2.371868E0,1.2658508E1,-8.8591987E-1,-9.946434E0,-2.6707938E-1,-2.3493752E0,2.4241799E-1,4.272202E0,1.022509E1,8.262771E-1,-5.419113E-1,-8.964684E0,-1.5265784E-1,-1.0204768E-1,5.910303E-1,-7.260254E-1,3.09161E0,5.436915E0,4.2730305E-1,5.6468064E-1,-1.2806244E-1,-4.51436E-1,1.1412522E-2,1.8142451E0,-6.464386E-3,1.5807028E-1,2.328565E-1,3.1955922E-1,-2.9241005E-2,2.4041286E-2,3.94237E-2,1.0348882E-1],"categories":[],"categories_nodes":[],"categories_segments":[],"categories_sizes":[],"default_left":[0,0,0,0,0,0,0,0,0,0,0,0,0,0,0,0,0,0,0,0,0,0,0,0,0,0,0,0,0,0,0,0,0,0,0,0,0],"id":8,"left_children":[1,3,5,7,9,11,13,-1,15,-1,17,19,21,23,-1,-1,25,-1,-1,27,-1,29,31,-1,-1,-1,-1,33,35,-1,-1,-1,-1,-1,-1,-1,-1],"loss_changes":[2.4400305E4,2.4860068E3,6.738199E3,7.750176E2,8.665405E1,7.192707E2,7.720342E2,0E0,4.3984375E0,0E0,3.7534943E0,4.4603778E2,1.12446045E2,1.8305664E1,0E0,0E0,1.8886719E0,0E0,0E0,5.953505E1,0E0,1.1424103E1,4.465332E0,0E0,0E0,0E0,0E0,1.6514204E1,5.445175E0,0E0,0E0,0E0,0E0,0E0,0E0,0E0,0E0],"parents":[2147483647,0,0,1,1,2,2,3,3,4,4,5,5,6,6,8,8,10,10,11,11,12,12,13,13,16,16,19,19,21,21,22,22,27,27,28,28],"right_children":[2,4,6,8,10,12,14,-1,16,-1,18,20,22,24,-1,-1,26,-1,-1,28,-1,30,32,-1,-1,-1,-1,34,36,-1,-1,-1,-1,-1,-1,-1,-1],"split_conditions":[3.575983E2,3.47464E2,3.708992E2,3.366662E2,3.52656E2,3.622018E2,3.795124E2,-8.8591987E-1,3.435956E2,-2.6707938E-1,3.550781E2,3.639768E2,3.652391E2,3.738648E2,8.262771E-1,-5.419113E-1,3.263815E2,-1.5265784E-1,-1.0204768E-1,3.605447E2,-7.260254E-1,3.607714E2,3.679897E2,4.2730305E-1,5.6468064E-1,-1.2806244E-1,-4.51436E-1,3.589001E2,3.602381E2,-6.464386E-3,1.5807028E-1,2.328565E-1,3.1955922E-1,-2.9241005E-2,2.4041286E-2,3.94237E-2,1.0348882E-1],"split_indices":[0,0,0,0,0,5,0,0,0,0,0,0,0,0,0,0,4,0,0,0,0,0,0,0,0,0,0,0,5,0,0,0,0,0,0,0,0],"split_type":[0,0,0,0,0,0,0,0,0,0,0,0,0,0,0,0,0,0,0,0,0,0,0,0,0,0,0,0,0,0,0,0,0,0,0,0,0],"sum_hessian":[4.65E2,1.89E2,2.76E2,1.31E2,5.8E1,1.77E2,9.9E1,1.6E1,1.15E2,1.3E1,4.5E1,8.4E1,9.3E1,6.3E1,3.6E1,5.5E1,6E1,1.1E1,3.4E1,8.3E1,1E0,4.8E1,4.5E1,2.8E1,3.5E1,1E0,5.9E1,5.7E1,2.6E1,1E0,4.7E1,2.8E1,1.7E1,2.5E1,3.2E1,6E0,2E1],"tree_param":{"num_deleted":"0","num_feature":"11","num_nodes":"37","size_leaf_vector":"1"}},{"base_weights":[3.265265E-1,-7.941807E0,5.907219E0,-1.01540165E1,-3.0900629E0,2.2148151E0,1.1934634E1,-9.288925E0,-7.814547E-1,-2.7175195E0,-6.267533E-1,2.1079941E-1,3.8967986E0,8.893815E0,1.4245404E1,-2.866965E-1,-4.7707176E-1,-3.7712305E0,-2.0359626E0,5.718855E-1,-7.078751E-1,3.0594046E0,4.999293E0,4.6051463E-1,2.5717112E-1,6.145379E-1,8.342744E-1,-1.5840767E-1,-2.5940308E-1,-1.0694666E-1,-9.2857057E-1,-2.2231469E-2,1.6548212E0,3.2163901E0,8.148743E-1,5.66908E0,1.7748474E-1,6.7497254E-3,-6.1410524E-2,-1.6602173E-2,1.9141886E-2,9.281318E-2,1.784668E-2,1.3617693E-1,1.9071205E-1,1.0187785E-3,6.688741E-2,8.082428E-2,2.8852922E-1],"categories":[],"categories_nodes":[],"categories_segments":[],"categories_sizes":[],"default_left":[0,0,0,0,0,0,0,0,0,0,0,0,0,0,0,0,0,0,0,0,0,0,0,0,0,0,0,0,0,0,0,0,0,0,0,0,0,0,0,0,0,0,0,0,0,0,0,0,0],"id":9,"left_children":[1,3,5,7,9,11,13,15,-1,17,-1,19,21,23,25,-1,-1,27,29,31,-1,33,35,-1,-1,-1,-1,-1,-1,-1,37,39,41,43,45,47,-1,-1,-1,-1,-1,-1,-1,-1,-1,-1,-1,-1,-1],"loss_changes":[2.1411133E4,1.975708E3,6.138383E3,4.610869E2,1.7705615E2,5.823134E2,6.111006E2,4.6726562E1,0E0,3.4693634E1,0E0,4.2315198E2,7.148804E1,9.599609E0,7.155371E1,0E0,0E0,2.3614807E0,2.346939E0,5.086464E1,0E0,1.7111145E1,1.774237E1,0E0,0E0,0E0,0E0,0E0,0E0,0E0,1.7592344E0,6.6528735E0,6.65802E0,4.933655E0,2.0498562E0,9.559326E-1,0E0,0E0,0E0,0E0,0E0,0E0,0E0,0E0,0E0,0E0,0E0,0E0,0E0],"parents":[2147483647,0,0,1,1,2,2,3,3,4,4,5,5,6,6,7,7,9,9,11,11,12,12,13,13,14,14,17,17,18,18,19,19,21,21,22,22,30,30,31,31,32,32,33,33,34,34,35,35],"right_children":[2,4,6,8,10,12,14,16,-1,18,-1,20,22,24,26,-1,-1,28,30,32,-1,34,36,-1,-1,-1,-1,-1,-1,-1,38,40,42,44,46,48,-1,-1,-1,-1,-1,-1,-1,-1,-1,-1,-1,-1,-1],"split_conditions":[3.5669507E2,3.4987787E2,3.7062973E2,3.736618E2,3.599047E2,3.622018E2,3.7632303E2,3.347077E2,-7.814547E-1,3.5452258E2,-6.267533E-1,3.738648E2,3.65376E2,3.689439E2,3.8236615E2,-2.866965E-1,-4.7707176E-1,3.543977E2,3.5613513E2,3.6006198E2,-7.078751E-1,3.659742E2,3.659742E2,4.6051463E-1,2.5717112E-1,6.145379E-1,8.342744E-1,-1.5840767E-1,-2.5940308E-1,-1.0694666E-1,3.52656E2,3.5883975E2,3.622052E2,3.631065E2,3.623708E2,3.623708E2,1.7748474E-1,6.7497254E-3,-6.1410524E-2,-1.6602173E-2,1.9141886E-2,9.281318E-2,1.784668E-2,1.3617693E-1,1.9071205E-1,1.0187785E-3,6.688741E-2,8.082428E-2,2.8852922E-1],"split_indices":[5,5,5,4,2,5,5,4,0,5,0,3,5,4,5,0,0,2,5,5,0,3,4,0,0,0,0,0,0,0,3,5,2,3,4,2,0,0,0,0,0,0,0,0,0,0,0,0,0],"split_type":[0,0,0,0,0,0,0,0,0,0,0,0,0,0,0,0,0,0,0,0,0,0,0,0,0,0,0,0,0,0,0,0,0,0,0,0,0,0,0,0,0,0,0,0,0,0,0,0,0],"sum_hessian":[4.62E2,1.86E2,2.76E2,1.27E2,5.9E1,1.72E2,1.04E2,1.12E2,1.5E1,5.8E1,1E0,7.9E1,9.3E1,4.7E1,5.7E1,9E0,1.03E2,2.1E1,3.7E1,7.8E1,1E0,5.5E1,3.8E1,4.2E1,5E0,3.5E1,2.2E1,1.7E1,4E0,3.3E1,4E0,5.1E1,2.7E1,5.1E1,4E0,2.4E1,1.4E1,1E0,3E0,2.9E1,2.2E1,2.3E1,4E0,3.1E1,2E1,2E0,2E0,1E0,2.3E1],"tree_param":{"num_deleted":"0","num_feature":"11","num_nodes":"49","size_leaf_vector":"1"}},{"base_weights":[7.134729E-2,-6.8953137E0,6.346588E0,-9.932931E0,-2.1610186E0,2.7812147E0,1.1562517E1,-7.8238815E-1,-9.055184E0,-2.4213305E-1,-1.6863728E0,1.1721601E0,4.3536744E0,9.656264E0,7.715344E-1,-4.9821636E-1,-8.014655E0,-2.2160754E0,-7.149416E-1,5.057434E-1,2.0726786E0,1.7525882E-1,2.7689326E-1,3.947125E-1,5.3765005E-1,-1.5836182E-1,-4.0617242E-1,-1.22248404E-1,-8.7524414E-2,-5.0110525E-1,-6.577062E-2,7.527513E-2,6.599963E-1,2.1142972E0,1.9562531E-2,-2.7641643E-2,1.5922546E-2,-1.7023724E-2,9.09091E-3,5.322807E-2,2.1890657E-2,8.121694E-2,1.2111216E-1],"categories":[],"categories_nodes":[],"categories_segments":[],"categories_sizes":[],"default_left":[0,0,0,0,0,0,0,0,0,0,0,0,0,0,0,0,0,0,0,0,0,0,0,0,0,0,0,0,0,0,0,0,0,0,0,0,0,0,0,0,0,0,0],"id":10,"left_children":[1,3,5,7,9,11,13,-1,15,-1,17,19,21,23,-1,-1,25,27,29,31,33,-1,-1,-1,-1,-1,-1,-1,-1,35,-1,37,39,41,-1,-1,-1,-1,-1,-1,-1,-1,-1],"loss_changes":[2.0940715E4,3.2430166E3,4.6542207E3,5.5053906E2,1.0638815E2,3.7695288E2,6.0311426E2,0E0,3.5549805E1,0E0,3.8552063E1,4.456092E1,5.695227E1,5.231836E1,0E0,0E0,6.9680176E0,1.0485992E0,3.0645113E0,2.9383621E0,1.4120789E0,0E0,0E0,0E0,0E0,0E0,0E0,0E0,0E0,1.1511054E0,0E0,6.3774246E-1,2.5002098E0,7.4276733E-1,0E0,0E0,0E0,0E0,0E0,0E0,0E0,0E0,0E0],"parents":[2147483647,0,0,1,1,2,2,3,3,4,4,5,5,6,6,8,8,10,10,11,11,12,12,13,13,16,16,17,17,18,18,19,19,20,20,29,29,31,31,32,32,33,33],"right_children":[2,4,6,8,10,12,14,-1,16,-1,18,20,22,24,-1,-1,26,28,30,32,34,-1,-1,-1,-1,-1,-1,-1,-1,36,-1,38,40,42,-1,-1,-1,-1,-1,-1,-1,-1,-1],"split_conditions":[3.585835E2,3.493539E2,3.708992E2,3.366662E2,3.52656E2,3.63471E2,3.808602E2,-7.8238815E-1,3.439988E2,-2.4213305E-1,3.565009E2,3.61059E2,3.670095E2,3.739718E2,7.715344E-1,-4.9821636E-1,3.280039E2,3.551211E2,3.581811E2,3.594886E2,3.65113E2,1.7525882E-1,2.7689326E-1,3.947125E-1,5.3765005E-1,-1.5836182E-1,-4.0617242E-1,-1.22248404E-1,-8.7524414E-2,3.585058E2,-6.577062E-2,2E0,3.579139E2,3.622018E2,1.9562531E-2,-2.7641643E-2,1.5922546E-2,-1.7023724E-2,9.09091E-3,5.322807E-2,2.1890657E-2,8.121694E-2,1.2111216E-1],"split_indices":[0,0,0,0,0,0,0,0,0,0,0,0,0,0,0,0,4,2,2,0,2,0,0,0,0,0,0,0,0,0,0,9,4,5,0,0,0,0,0,0,0,0,0],"split_type":[0,0,0,0,0,0,0,0,0,0,0,0,0,0,0,0,0,0,0,0,0,0,0,0,0,0,0,0,0,0,0,0,0,0,0,0,0,0,0,0,0,0,0],"sum_hessian":[4.77E2,2.26E2,2.51E2,1.37E2,8.9E1,1.5E2,1.01E2,1.6E1,1.21E2,1.2E1,7.7E1,7.5E1,7.5E1,7E1,3.1E1,6E1,6.1E1,4.9E1,2.8E1,4.4E1,3.1E1,4.6E1,2.9E1,3E1,4E1,2E0,5.9E1,3E1,1.9E1,2.2E1,6E0,1.2E1,3.2E1,3E1,1E0,2.1E1,1E0,2E0,1E1,1E1,2.2E1,1.4E1,1.6E1],"tree_param":{"num_deleted":"0","num_feature":"11","num_nodes":"43","size_leaf_vector":"1"}},{"base_weights":[-7.0747705E-3,-7.353483E0,5.2650814E0,-9.590379E0,-2.833245E0,2.0057197E0,1.0642507E1,-8.16805E-1,-8.774713E0,-2.2753413E-1,-2.1369476E0,2.1930664E0,-6.945595E-1,8.168003E0,1.304852E1,-4.8900515E-1,-7.8223853E0,-2.2564423E0,-6.9748774E-2,5.2209586E-1,3.8366234E0,4.121525E-1,1.1226807E-1,5.8407634E-1,8.031063E-1,-1.137352E-1,-3.9380202E-1,-3.2141875E-2,-1.1413397E-1,7.7730305E-2,1.7668501E0,2.9395006E0,2.545224E-1,-3.2903813E-2,2.0437224E-2,-3.5812377E-3,9.311775E-2,1.2162646E-1,1.6831201E-1],"categories":[],"categories_nodes":[],"categories_segments":[],"categories_sizes":[],"default_left":[0,0,0,0,0,0,0,0,0,0,0,0,0,0,0,0,0,0,0,0,0,0,0,0,0,0,0,0,0,0,0,0,0,0,0,0,0,0,0],"id":11,"left_children":[1,3,5,7,9,11,13,-1,15,-1,17,19,-1,21,23,-1,25,27,-1,29,31,-1,-1,-1,-1,-1,-1,-1,-1,33,35,37,-1,-1,-1,-1,-1,-1,-1],"loss_changes":[1.6964346E4,1.8231963E3,4.448032E3,5.2793164E2,6.441797E1,5.0698132E2,4.6497363E2,0E0,2.9774414E1,0E0,9.307556E-1,4.3466425E2,0E0,3.715332E0,5.9902344E0,0E0,5.3930664E-1,1.4137268E-1,0E0,4.4112736E1,7.502344E1,0E0,0E0,0E0,0E0,0E0,0E0,0E0,0E0,1.4882728E1,3.8206406E0,2.412384E0,0E0,0E0,0E0,0E0,0E0,0E0,0E0],"parents":[2147483647,0,0,1,1,2,2,3,3,4,4,5,5,6,6,8,8,10,10,11,11,13,13,14,14,16,16,17,17,19,19,20,20,29,29,30,30,31,31],"right_children":[2,4,6,8,10,12,14,-1,16,-1,18,20,-1,22,24,-1,26,28,-1,30,32,-1,-1,-1,-1,-1,-1,-1,-1,34,36,38,-1,-1,-1,-1,-1,-1,-1],"split_conditions":[3.565009E2,3.493539E2,3.708992E2,3.347077E2,3.54199E2,3.9456909E0,3.775311E2,-8.16805E-1,3.433949E2,-2.2753413E-1,3.558364E2,3.627058E2,-6.945595E-1,2.7315798E0,3.84401E2,-4.8900515E-1,3.40634E2,3.496187E2,-6.9748774E-2,3.607714E2,3.659742E2,4.121525E-1,1.1226807E-1,5.8407634E-1,8.031063E-1,-1.137352E-1,-3.9380202E-1,-3.2141875E-2,-1.1413397E-1,3.585058E2,3.5993503E2,3.645048E2,2.545224E-1,-3.2903813E-2,2.0437224E-2,-3.5812377E-3,9.311775E-2,1.2162646E-1,1.6831201E-1],"split_indices":[0,0,0,0,0,7,0,0,0,0,0,0,0,7,0,0,3,3,0,0,0,0,0,0,0,0,0,0,0,0,5,0,0,0,0,0,0,0,0],"split_type":[0,0,0,0,0,0,0,0,0,0,0,0,0,0,0,0,0,0,0,0,0,0,0,0,0,0,0,0,0,0,0,0,0,0,0,0,0,0,0],"sum_hessian":[4.36E2,1.82E2,2.54E2,1.21E2,6.1E1,1.59E2,9.5E1,1.1E1,1.1E2,1.6E1,4.5E1,1.58E2,1E0,4.9E1,4.6E1,4.9E1,6.1E1,3.7E1,8E0,7.9E1,7.9E1,4.8E1,1E0,3.5E1,1.1E1,1E0,6E1,1E0,3.6E1,5.9E1,2E1,4.8E1,3.1E1,1.8E1,4.1E1,1E0,1.9E1,2.5E1,2.3E1],"tree_param":{"num_deleted":"0","num_feature":"11","num_nodes":"39","size_leaf_vector":"1"}},{"base_weights":[-1.4522277E-1,-7.0447755E0,5.062535E0,-9.203913E0,-2.5216208E0,1.8775629E0,1.0133838E1,-8.109285E-1,-8.323509E0,-2.174944E-1,-1.8495777E0,2.0552647E0,-6.771957E-1,8.12689E0,6.520717E-1,-4.670112E-1,-3.7308207E-1,-1.1076057E-1,-1.5319813E0,8.4456056E-1,3.9148765E0,3.457893E-1,4.5091626E-1,-1.2270492E0,-9.435628E-2,1.8511912E-1,1.8290946E0,3.3136194E0,2.4941151E-1,-7.411041E-2,5.0174715E-3,-1.9650504E-2,2.9875735E-2,-3.491974E-3,9.397881E-2,1.7618413E-1,1.12351835E-1],"categories":[],"categories_nodes":[],"categories_segments":[],"categories_sizes":[],"default_left":[0,0,0,0,0,0,0,0,0,0,0,0,0,0,0,0,0,0,0,0,0,0,0,0,0,0,0,0,0,0,0,0,0,0,0,0,0],"id":12,"left_children":[1,3,5,7,9,11,13,-1,15,-1,17,19,-1,21,-1,-1,-1,-1,23,25,27,-1,-1,29,-1,31,33,35,-1,-1,-1,-1,-1,-1,-1,-1,-1],"loss_changes":[1.6707742E4,1.9300127E3,4.2612417E3,6.9872754E2,7.304703E1,4.77266E2,4.8922363E2,0E0,3.7211914E1,0E0,2.4125366E0,3.6367828E2,0E0,5.647461E0,0E0,0E0,0E0,0E0,9.3325806E-1,6.4585655E1,2.4774048E1,0E0,0E0,6.583996E0,0E0,1.4778322E1,3.9656982E0,1.9403076E0,0E0,0E0,0E0,0E0,0E0,0E0,0E0,0E0,0E0],"parents":[2147483647,0,0,1,1,2,2,3,3,4,4,5,5,6,6,8,8,10,10,11,11,13,13,18,18,19,19,20,20,23,23,25,25,26,26,27,27],"right_children":[2,4,6,8,10,12,14,-1,16,-1,18,20,-1,22,-1,-1,-1,-1,24,26,28,-1,-1,30,-1,32,34,36,-1,-1,-1,-1,-1,-1,-1,-1,-1],"split_conditions":[3.575983E2,3.493539E2,3.691398E2,3.347077E2,3.54199E2,3.9456909E0,3.788607E2,-8.109285E-1,3.435638E2,-2.174944E-1,3.552548E2,3.638311E2,-6.771957E-1,3.732539E2,6.520717E-1,-4.670112E-1,-3.7308207E-1,-1.1076057E-1,3.56184E2,3.607714E2,3.670095E2,3.457893E-1,4.5091626E-1,4.7791436E-1,-9.435628E-2,3.593012E2,3.5993503E2,3.656966E2,2.4941151E-1,-7.411041E-2,5.0174715E-3,-1.9650504E-2,2.9875735E-2,-3.491974E-3,9.397881E-2,1.7618413E-1,1.12351835E-1],"split_indices":[0,0,0,0,0,7,0,0,0,0,5,0,0,0,0,0,0,0,2,0,0,0,0,7,0,0,5,2,0,0,0,0,0,0,0,0,0],"split_type":[0,0,0,0,0,0,0,0,0,0,0,0,0,0,0,0,0,0,0,0,0,0,0,0,0,0,0,0,0,0,0,0,0,0,0,0,0],"sum_hessian":[4.63E2,1.99E2,2.64E2,1.34E2,6.5E1,1.63E2,1.01E2,1.3E1,1.21E2,1.6E1,4.9E1,1.62E2,1E0,6.2E1,3.9E1,5.1E1,7E1,2E1,2.9E1,9.9E1,6.3E1,3E1,3.2E1,1.8E1,1.1E1,6E1,3.9E1,4.3E1,2E1,1.5E1,3E0,2.5E1,3.5E1,1E0,3.8E1,3.4E1,9E0],"tree_param":{"num_deleted":"0","num_feature":"11","num_nodes":"37","size_leaf_vector":"1"}},{"base_weights":[-1.2739147E-1,-6.679637E0,4.844652E0,-8.634288E0,-2.543799E0,2.0740635E0,1.0141873E1,-7.035238E-1,-7.8700757E0,-2.2922717E-1,-1.9846936E0,5.1233304E-1,3.5935173E0,8.426227E0,6.440467E-1,-4.1432166E-1,-3.2171413E-1,-1.269665E-1,-1.6676517E0,-6.8344414E-2,1.343825E0,2.8881056E0,2.5551546E-1,3.5096702E-1,4.6898827E-1,-8.8557646E-2,-1.0840034E0,-5.0579697E-1,2.5473225E-1,1.4624538E0,5.883789E-2,1.21405184E-1,1.7480521E-1,7.969665E-3,-6.42201E-2,-2.828878E-2,-9.43573E-3,2.2697449E-3,1.867692E-2,3.8537025E-2,8.12652E-2,1.0442606E-2,-9.780121E-3],"categories":[],"categories_nodes":[],"categories_segments":[],"categories_sizes":[],"default_left":[0,0,0,0,0,0,0,0,0,0,0,0,0,0,0,0,0,0,0,0,0,0,0,0,0,0,0,0,0,0,0,0,0,0,0,0,0,0,0,0,0,0,0],"id":13,"left_children":[1,3,5,7,9,11,13,-1,15,-1,17,19,21,23,-1,-1,-1,-1,25,27,29,31,-1,-1,-1,-1,33,35,37,39,41,-1,-1,-1,-1,-1,-1,-1,-1,-1,-1,-1,-1],"loss_changes":[1.4725061E4,1.5544404E3,3.7508057E3,4.376455E2,6.392447E1,4.015652E2,3.0499707E2,0E0,1.7224121E1,0E0,4.9091187E0,4.113228E1,7.725757E1,1.0626953E1,0E0,0E0,0E0,0E0,2.5476074E-1,7.3367095E0,5.2492332E0,8.571564E0,0E0,0E0,0E0,0E0,2.198125E0,3.1162882E-1,7.2915995E-1,2.3519669E0,1.9353065E-1,0E0,0E0,0E0,0E0,0E0,0E0,0E0,0E0,0E0,0E0,0E0,0E0],"parents":[2147483647,0,0,1,1,2,2,3,3,4,4,5,5,6,6,8,8,10,10,11,11,12,12,13,13,18,18,19,19,20,20,21,21,26,26,27,27,28,28,29,29,30,30],"right_children":[2,4,6,8,10,12,14,-1,16,-1,18,20,22,24,-1,-1,-1,-1,26,28,30,32,-1,-1,-1,-1,34,36,38,40,42,-1,-1,-1,-1,-1,-1,-1,-1,-1,-1,-1,-1],"split_conditions":[3.573989E2,3.47464E2,3.725358E2,3.357706E2,3.521381E2,3.627058E2,3.804012E2,-7.035238E-1,3.449314E2,-2.2922717E-1,3.547816E2,3.602592E2,3.672599E2,3.727494E2,6.440467E-1,-4.1432166E-1,-3.2171413E-1,-1.269665E-1,3.5597665E2,3.585835E2,2.050939E0,3.651822E2,2.5551546E-1,3.5096702E-1,4.6898827E-1,-8.8557646E-2,3.555654E2,3.5807706E2,3.594886E2,3.602381E2,3.732539E2,1.21405184E-1,1.7480521E-1,7.969665E-3,-6.42201E-2,-2.828878E-2,-9.43573E-3,2.2697449E-3,1.867692E-2,3.8537025E-2,8.12652E-2,1.0442606E-2,-9.780121E-3],"split_indices":[0,0,0,1,0,0,0,0,0,0,0,0,0,3,0,0,0,0,5,0,7,0,0,0,0,0,1,5,0,5,3,0,0,0,0,0,0,0,0,0,0,0,0],"split_type":[0,0,0,0,0,0,0,0,0,0,0,0,0,0,0,0,0,0,0,0,0,0,0,0,0,0,0,0,0,0,0,0,0,0,0,0,0,0,0,0,0,0,0],"sum_hessian":[4.5E2,1.94E2,2.56E2,1.31E2,6.3E1,1.69E2,8.7E1,1.4E1,1.17E2,1.2E1,5.1E1,8.4E1,8.5E1,5.6E1,3.1E1,8.7E1,3E1,1.6E1,3.5E1,5E1,3.4E1,6E1,2.5E1,2.6E1,3E1,2.8E1,7E0,2.1E1,2.9E1,3.1E1,3E0,3.7E1,2.3E1,1E0,6E0,1.7E1,4E0,1.1E1,1.8E1,7E0,2.4E1,2E0,1E0],"tree_param":{"num_deleted":"0","num_feature":"11","num_nodes":"43","size_leaf_vector":"1"}},{"base_weights":[-3.1231084E-1,-4.525069E0,6.347579E0,-7.9036903E0,-8.5839313E-1,3.4758766E0,9.920037E0,-7.2350574E0,-6.216924E-1,-6.6349125E-1,-6.6463625E-1,2.544898E0,5.4058976E0,8.45799E0,6.4924663E-1,-2.5028646E-1,-3.7334797E-1,-2.002578E0,2.8924286E-1,2.740828E0,4.459621E-1,2.9758674E-1,1.705163E-1,8.550572E0,8.646317E-2,-1.3659096E-1,-1.6608169E0,-4.987468E-1,7.9212695E-1,1.8575463E0,1.643718E-1,-2.4985504E-1,5.1514436E-2,3.370586E-1,4.599862E-1,-8.8164665E-2,-1.4885331E-2,-1.6029188E-2,-6.8053894E-2,2.0638134E-2,6.108523E-2,9.528131E-2,1.6388703E-2,1.0063172E-3,-1.732788E-2],"categories":[],"categories_nodes":[],"categories_segments":[],"categories_sizes":[],"default_left":[0,0,0,0,0,0,0,0,0,0,0,0,0,0,0,0,0,0,0,0,0,0,0,0,0,0,0,0,0,0,0,0,0,0,0,0,0,0,0,0,0,0,0,0,0],"id":14,"left_children":[1,3,5,7,9,11,13,15,-1,17,-1,19,21,23,-1,-1,-1,25,27,29,31,-1,-1,33,-1,-1,35,37,39,41,-1,43,-1,-1,-1,-1,-1,-1,-1,-1,-1,-1,-1,-1,-1],"loss_changes":[1.2598039E4,3.4000015E3,1.7505908E3,3.4318848E2,3.1350262E2,1.6232971E2,2.352124E2,2.8279785E1,0E0,1.6898398E2,0E0,2.674231E1,1.3469543E1,1.9476807E1,0E0,0E0,0E0,9.17038E0,3.1303932E1,2.3827576E1,3.1035142E0,0E0,0E0,1.4101562E0,0E0,0E0,5.0625076E0,4.3263617E0,7.3181133E0,1.2877274E0,0E0,1.11406505E-1,0E0,0E0,0E0,0E0,0E0,0E0,0E0,0E0,0E0,0E0,0E0,0E0,0E0],"parents":[2147483647,0,0,1,1,2,2,3,3,4,4,5,5,6,6,7,7,9,9,11,11,12,12,13,13,17,17,18,18,19,19,20,20,23,23,26,26,27,27,28,28,29,29,31,31],"right_children":[2,4,6,8,10,12,14,16,-1,18,-1,20,22,24,-1,-1,-1,26,28,30,32,-1,-1,34,-1,-1,36,38,40,42,-1,44,-1,-1,-1,-1,-1,-1,-1,-1,-1,-1,-1,-1,-1],"split_conditions":[3.619739E2,3.4987787E2,3.725687E2,3.736618E2,3.738648E2,3.6734732E2,3.8202847E2,3.423544E2,-6.216924E-1,3.5669507E2,-6.6463625E-1,3.659742E2,3.727469E2,1.7884982E0,6.4924663E-1,-2.5028646E-1,-3.7334797E-1,3.5432986E2,3.5883975E2,3.6347568E2,3.6424606E2,2.9758674E-1,1.705163E-1,3.7405588E2,8.646317E-2,-1.3659096E-1,1.2685641E0,3.594886E2,3.6014426E2,3.641027E2,1.643718E-1,3.670095E2,5.1514436E-2,3.370586E-1,4.599862E-1,-8.8164665E-2,-1.4885331E-2,-1.6029188E-2,-6.8053894E-2,2.0638134E-2,6.108523E-2,9.528131E-2,1.6388703E-2,1.0063172E-3,-1.732788E-2],"split_indices":[5,5,5,4,3,5,5,4,0,5,0,3,2,7,0,0,0,5,5,5,5,0,0,5,0,0,7,2,5,2,0,3,0,0,0,0,0,0,0,0,0,0,0,0,0],"split_type":[0,0,0,0,0,0,0,0,0,0,0,0,0,0,0,0,0,0,0,0,0,0,0,0,0,0,0,0,0,0,0,0,0,0,0,0,0,0,0,0,0,0,0,0,0],"sum_hessian":[4.47E2,2.74E2,1.73E2,1.42E2,1.32E2,9.7E1,7.6E1,1.26E2,1.6E1,1.31E2,1E0,6.7E1,3E1,5.4E1,2.2E1,1.4E1,1.12E2,5.4E1,7.7E1,6.1E1,6E0,2.2E1,8E0,5.3E1,1E0,1.5E1,3.9E1,3E1,4.7E1,2.5E1,3.6E1,3E0,3E0,1.7E1,3.6E1,3.6E1,3E0,2.6E1,4E0,2.6E1,2.1E1,2.4E1,1E0,1E0,2E0],"tree_param":{"num_deleted":"0","num_feature":"11","num_nodes":"45","size_leaf_vector":"1"}},{"base_weights":[-4.6619985E-2,-4.447026E0,5.9176183E0,-7.660397E0,-1.10259E0,3.354328E0,9.325922E0,-7.0405006E0,-7.3835224E-1,-7.5897497E-1,-7.812521E-1,2.5359485E0,4.86311E0,7.9136963E0,6.0859495E-1,-4.124333E-1,-6.3686E0,-2.0558112E0,1.8951134E-1,1.706213E0,3.0696282E0,2.630355E-1,2.6648216E0,3.2563064E-1,4.3139634E-1,-2.0319997E-1,-3.260681E-1,-1.8293469E0,-1.9772919E-1,-4.1079354E-1,6.5976375E-1,1.9190685E0,1.7297974E-1,1.5577827E-1,2.6210023E-2,1.4696045E-1,1.8602753E-2,-1.1020317E-1,-7.6899104E-2,-1.2389679E-2,-6.533173E-2,1.8176086E-2,5.074158E-2,5.3572845E-2,1.0283734E-1,1.9829305E-2,-5.414327E-3],"categories":[],"categories_nodes":[],"categories_segments":[],"categories_sizes":[],"default_left":[0,0,0,0,0,0,0,0,0,0,0,0,0,0,0,0,0,0,0,0,0,0,0,0,0,0,0,0,0,0,0,0,0,0,0,0,0,0,0,0,0,0,0,0,0,0,0],"id":15,"left_children":[1,3,5,7,9,11,13,15,-1,17,-1,19,21,23,-1,-1,25,27,29,31,33,-1,35,-1,-1,-1,-1,37,-1,39,41,43,45,-1,-1,-1,-1,-1,-1,-1,-1,-1,-1,-1,-1,-1,-1],"loss_changes":[1.2177783E4,2.8609795E3,1.6898018E3,4.9516455E2,6.4683826E2,1.2842957E2,2.4128564E2,5.05625E1,0E0,1.6029369E2,0E0,2.8416351E1,2.0068726E1,2.85083E0,0E0,0E0,3.7736816E0,1.6415909E1,2.1725433E1,1.0111465E1,3.6286316E0,0E0,3.9393044E0,0E0,0E0,0E0,0E0,2.1783295E0,0E0,4.640973E0,4.154085E0,1.0638199E0,3.5740957E-1,0E0,0E0,0E0,0E0,0E0,0E0,0E0,0E0,0E0,0E0,0E0,0E0,0E0,0E0],"parents":[2147483647,0,0,1,1,2,2,3,3,4,4,5,5,6,6,7,7,9,9,11,11,12,12,13,13,16,16,17,17,18,18,19,19,20,20,22,22,27,27,29,29,30,30,31,31,32,32],"right_children":[2,4,6,8,10,12,14,16,-1,18,-1,20,22,24,-1,-1,26,28,30,32,34,-1,36,-1,-1,-1,-1,38,-1,40,42,44,46,-1,-1,-1,-1,-1,-1,-1,-1,-1,-1,-1,-1,-1,-1],"split_conditions":[3.619739E2,3.4987787E2,3.725687E2,3.672599E2,3.623708E2,3.6675803E2,3.814241E2,3.4316782E2,-7.3835224E-1,3.5613513E2,-7.812521E-1,3.6347568E2,3.728864E2,3.7458072E2,6.0859495E-1,-4.124333E-1,3E0,1.2767028E0,3.5883975E2,3.641027E2,3.679897E2,2.630355E-1,3.708992E2,3.2563064E-1,4.3139634E-1,-2.0319997E-1,-3.260681E-1,3.547816E2,-1.9772919E-1,3.594886E2,6.390466E-1,2.9147437E-1,3.652391E2,1.5577827E-1,2.6210023E-2,1.4696045E-1,1.8602753E-2,-1.1020317E-1,-7.6899104E-2,-1.2389679E-2,-6.533173E-2,1.8176086E-2,5.074158E-2,5.3572845E-2,1.0283734E-1,1.9829305E-2,-5.414327E-3],"split_indices":[5,5,5,3,1,5,1,5,0,5,0,5,3,5,0,0,8,7,5,2,2,0,1,0,0,0,0,1,0,2,7,7,3,0,0,0,0,0,0,0,0,0,0,0,0,0,0],"split_type":[0,0,0,0,0,0,0,0,0,0,0,0,0,0,0,0,0,0,0,0,0,0,0,0,0,0,0,0,0,0,0,0,0,0,0,0,0,0,0,0,0,0,0,0,0,0,0],"sum_hessian":[4.62E2,2.66E2,1.96E2,1.35E2,1.31E2,1.13E2,8.3E1,1.26E2,9E0,1.29E2,2E0,7.5E1,3.8E1,5.8E1,2.5E1,4.1E1,8.5E1,5.4E1,7.5E1,3.1E1,4.4E1,3.1E1,7E0,2.3E1,3.5E1,7E0,7.8E1,5E1,4E0,3.3E1,4.2E1,2.7E1,4E0,4.3E1,1E0,6E0,1E0,1.9E1,3.1E1,2.9E1,4E0,2.4E1,1.8E1,5E0,2.2E1,2E0,2E0],"tree_param":{"num_deleted":"0","num_feature":"11","num_nodes":"47","size_leaf_vector":"1"}},{"base_weights":[-1.738096E-1,-5.662707E0,4.4238663E0,-7.4786115E0,-2.080417E0,1.7130084E0,8.402625E0,-6.8136687E0,-6.807823E-1,-1.8826976E-1,-1.500699E0,4.7729796E-1,2.8434982E0,7.2070794E0,6.193085E-1,-3.9950326E-1,-3.059783E-1,-1.5804507E0,-6.1256915E-1,-2.2756215E-3,9.851487E-1,2.2771697E0,3.3937657E0,5.740092E0,4.0106627E-1,-1.7624353E0,-1.2852672E0,8.452606E-3,-4.0135194E-2,-3.946795E-1,2.2672145E-1,6.599355E-1,1.2375641E0,3.1733703E-2,1.1515057E-1,1.735001E-1,1.813736E-2,2.9815853E-1,1.3717575E-1,-2.2229005E-2,-8.980115E-2,-6.69838E-2,-2.4706014E-2,-2.3162587E-2,5.584717E-4,2.6589585E-2,7.890829E-3,4.6904754E-2,1.1487198E-2,-5.33905E-3,6.6146225E-2],"categories":[],"categories_nodes":[],"categories_segments":[],"categories_sizes":[],"default_left":[0,0,0,0,0,0,0,0,0,0,0,0,0,0,0,0,0,0,0,0,0,0,0,0,0,0,0,0,0,0,0,0,0,0,0,0,0,0,0,0,0,0,0,0,0,0,0,0,0,0,0],"id":16,"left_children":[1,3,5,7,9,11,13,15,-1,-1,17,19,21,23,-1,-1,-1,25,27,29,31,33,35,37,-1,39,41,-1,-1,43,45,47,49,-1,-1,-1,-1,-1,-1,-1,-1,-1,-1,-1,-1,-1,-1,-1,-1,-1,-1],"loss_changes":[1.1128967E4,1.2919658E3,2.57421E3,4.499707E2,6.174933E1,1.9980478E2,3.726953E2,5.0722168E1,0E0,0E0,2.7858505E0,1.7050869E1,1.5644226E1,4.5932617E1,0E0,0E0,0E0,3.1330872E-1,1.0273788E0,3.4142776E0,1.974308E0,2.3612976E-1,7.0599365E0,4.362671E0,0E0,3.966446E-1,2.8503418E-1,0E0,0E0,3.94794E-1,4.205743E-1,1.8187313E0,2.206829E0,0E0,0E0,0E0,0E0,0E0,0E0,0E0,0E0,0E0,0E0,0E0,0E0,0E0,0E0,0E0,0E0,0E0,0E0],"parents":[2147483647,0,0,1,1,2,2,3,3,4,4,5,5,6,6,7,7,10,10,11,11,12,12,13,13,17,17,18,18,19,19,20,20,21,21,22,22,23,23,25,25,26,26,29,29,30,30,31,31,32,32],"right_children":[2,4,6,8,10,12,14,16,-1,-1,18,20,22,24,-1,-1,-1,26,28,30,32,34,36,38,-1,40,42,-1,-1,44,46,48,50,-1,-1,-1,-1,-1,-1,-1,-1,-1,-1,-1,-1,-1,-1,-1,-1,-1,-1],"split_conditions":[3.578323E2,3.47464E2,3.691398E2,3.662681E2,3.54199E2,3.628387E2,3.821265E2,3.430194E2,-6.807823E-1,-1.8826976E-1,3.565009E2,3.597911E2,3.652391E2,3.739507E2,6.193085E-1,-3.9950326E-1,-3.059783E-1,3.554547E2,3.555654E2,3.585058E2,3.607714E2,3.526443E2,3.689439E2,3.689439E2,4.0106627E-1,3.496187E2,3.56184E2,8.452606E-3,-4.0135194E-2,3.5807706E2,3.55299E2,3.594886E2,3.5993503E2,3.1733703E-2,1.1515057E-1,1.735001E-1,1.813736E-2,2.9815853E-1,1.3717575E-1,-2.2229005E-2,-8.980115E-2,-6.69838E-2,-2.4706014E-2,-2.3162587E-2,5.584717E-4,2.6589585E-2,7.890829E-3,4.6904754E-2,1.1487198E-2,-5.33905E-3,6.6146225E-2],"split_indices":[0,0,0,3,0,0,0,0,0,0,0,0,0,0,0,0,0,0,1,0,0,4,0,4,0,3,3,0,0,5,4,3,5,0,0,0,0,0,0,0,0,0,0,0,0,0,0,0,0,0,0],"split_type":[0,0,0,0,0,0,0,0,0,0,0,0,0,0,0,0,0,0,0,0,0,0,0,0,0,0,0,0,0,0,0,0,0,0,0,0,0,0,0,0,0,0,0,0,0,0,0,0,0,0,0],"sum_hessian":[4.39E2,2E2,2.39E2,1.32E2,6.8E1,1.43E2,9.6E1,1.21E2,1.1E1,1.6E1,5.2E1,6.9E1,7.4E1,7.6E1,2E1,4.1E1,8E1,4.7E1,5E0,3.6E1,3.3E1,3.9E1,3.5E1,3E1,4.6E1,2.6E1,2.1E1,1E0,4E0,1.3E1,2.3E1,1.6E1,1.7E1,1E0,3.8E1,3.4E1,1E0,2.7E1,3E0,1E0,2.5E1,1.9E1,2E0,1.1E1,2E0,3E0,2E1,9E0,7E0,1E0,1.6E1],"tree_param":{"num_deleted":"0","num_feature":"11","num_nodes":"51","size_leaf_vector":"1"}},{"base_weights":[-3.423515E-1,-5.7719703E0,3.6058805E0,-6.903029E0,-2.3994963E0,1.0535741E0,7.679035E0,-6.394304E0,-6.166968E-1,-1.9516069E0,-4.3082985E-1,1.2183654E0,-6.3282627E-1,6.2604346E0,5.067355E-1,-3.7039188E-1,-5.718913E0,-1.21934436E-1,-7.321995E-2,-1.4539263E-1,2.0601294E0,3.2390353E-1,1.5021972E-1,-1.7136899E-1,-2.942439E-1,-5.3172123E-1,3.1255788E-1,1.4228551E0,2.6813717E0,2.9242247E-2,-3.500458E-2,3.215138E-2,5.2391454E-3,7.5965755E-2,-4.5188903E-3,1.4163555E-1,5.623271E-2],"categories":[],"categories_nodes":[],"categories_segments":[],"categories_sizes":[],"default_left":[0,0,0,0,0,0,0,0,0,0,0,0,0,0,0,0,0,0,0,0,0,0,0,0,0,0,0,0,0,0,0,0,0,0,0,0,0],"id":17,"left_children":[1,3,5,7,9,11,13,15,-1,17,-1,19,-1,21,-1,-1,23,-1,-1,25,27,-1,-1,-1,-1,29,31,33,35,-1,-1,-1,-1,-1,-1,-1,-1],"loss_changes":[9.624766E3,7.043706E2,2.694854E3,3.1069287E2,1.1962793E2,3.7916858E2,2.8491357E2,4.7308594E1,0E0,7.582367E0,0E0,1.8397353E2,0E0,2.7307129E1,0E0,0E0,1.1396484E1,0E0,0E0,1.1135195E1,3.537906E1,0E0,0E0,0E0,0E0,6.8013287E0,1.9238579E0,7.5815964E0,8.358215E0,0E0,0E0,0E0,0E0,0E0,0E0,0E0,0E0],"parents":[2147483647,0,0,1,1,2,2,3,3,4,4,5,5,6,6,7,7,9,9,11,11,13,13,16,16,19,19,20,20,25,25,26,26,27,27,28,28],"right_children":[2,4,6,8,10,12,14,16,-1,18,-1,20,-1,22,-1,-1,24,-1,-1,26,28,-1,-1,-1,-1,30,32,34,36,-1,-1,-1,-1,-1,-1,-1,-1],"split_conditions":[3.5597665E2,3.4987787E2,3.6817487E2,3.585835E2,2.3349438E0,3.9456909E0,3.791644E2,3.4316782E2,-6.166968E-1,3.5452258E2,-4.3082985E-1,3.602381E2,-6.3282627E-1,2.7315798E0,5.067355E-1,-3.7039188E-1,3.347077E2,-1.21934436E-1,-7.321995E-2,3.5883627E2,3.6347568E2,3.2390353E-1,1.5021972E-1,-1.7136899E-1,-2.942439E-1,3.550781E2,3.579139E2,3.725358E2,3.659742E2,2.9242247E-2,-3.500458E-2,3.215138E-2,5.2391454E-3,7.5965755E-2,-4.5188903E-3,1.4163555E-1,5.623271E-2],"split_indices":[5,5,5,3,7,7,1,5,0,5,0,5,0,7,0,0,4,0,0,5,5,0,0,0,0,3,4,3,3,0,0,0,0,0,0,0,0],"split_type":[0,0,0,0,0,0,0,0,0,0,0,0,0,0,0,0,0,0,0,0,0,0,0,0,0,0,0,0,0,0,0,0,0,0,0,0,0],"sum_hessian":[4.47E2,1.88E2,2.59E2,1.4E2,4.8E1,1.6E2,9.9E1,1.3E2,1E1,4.6E1,2E0,1.59E2,1E0,6.5E1,3.4E1,4.8E1,8.2E1,2.1E1,2.5E1,6.1E1,9.8E1,6E1,5E0,7E0,7.5E1,3.3E1,2.8E1,5E1,4.8E1,4E0,2.9E1,1E1,1.8E1,4.7E1,3E0,4.3E1,5E0],"tree_param":{"num_deleted":"0","num_feature":"11","num_nodes":"37","size_leaf_vector":"1"}},{"base_weights":[1.6849328E-2,-3.8414502E0,5.10972E0,-6.552241E0,-6.806884E-1,3.187746E0,8.556861E0,-6.9625056E-1,-6.0668006E0,-4.8397076E-1,-6.1700594E-1,2.1429133E0,4.8711853E0,3.7553397E-1,5.610012E-1,-6.859715E0,-4.929153E0,-1.5275415E0,2.8715107E-1,1.4241457E0,2.6744676E0,2.4586956E-1,6.633224E-2,-4.0553743E-1,-3.1392312E-1,-1.5812396E-1,-2.5721344E-1,-9.993558E-2,-1.2415816E0,-7.904613E-2,1.0548255E0,1.5819582E0,9.7753905E-2,1.4163738E-1,8.10022E-1,-3.0587768E-2,-6.515577E-2,-2.0216702E-2,1.004893E-2,4.447944E-2,9.299367E-2,4.5010123E-2,8.3577506E-2,1.068039E-2,-9.141541E-3,-2.4201965E-2,6.2727354E-2],"categories":[],"categories_nodes":[],"categories_segments":[],"categories_sizes":[],"default_left":[0,0,0,0,0,0,0,0,0,0,0,0,0,0,0,0,0,0,0,0,0,0,0,0,0,0,0,0,0,0,0,0,0,0,0,0,0,0,0,0,0,0,0,0,0,0,0],"id":18,"left_children":[1,3,5,7,9,11,13,-1,15,17,-1,19,21,-1,-1,23,25,27,29,31,33,-1,-1,-1,-1,-1,-1,-1,35,37,39,41,43,-1,45,-1,-1,-1,-1,-1,-1,-1,-1,-1,-1,-1,-1],"loss_changes":[9.117496E3,2.2575347E3,1.2977861E3,4.2374316E2,2.761424E2,2.182201E2,1.13546875E2,0E0,8.796533E1,9.86145E1,0E0,2.7520386E1,1.5015869E0,0E0,0E0,5.0688477E0,6.1536865E0,4.5246964E0,2.0042915E1,7.590248E0,1.1280212E1,0E0,0E0,0E0,0E0,0E0,0E0,0E0,5.592575E-1,4.5446067E0,1.405016E0,5.1091003E-1,2.0158823E-1,0E0,3.4834642E0,0E0,0E0,0E0,0E0,0E0,0E0,0E0,0E0,0E0,0E0,0E0,0E0],"parents":[2147483647,0,0,1,1,2,2,3,3,4,4,5,5,6,6,8,8,9,9,11,11,12,12,15,15,16,16,17,17,18,18,19,19,20,20,28,28,29,29,30,30,31,31,32,32,34,34],"right_children":[2,4,6,8,10,12,14,-1,16,18,-1,20,22,-1,-1,24,26,28,30,32,34,-1,-1,-1,-1,-1,-1,-1,36,38,40,42,44,-1,46,-1,-1,-1,-1,-1,-1,-1,-1,-1,-1,-1,-1],"split_conditions":[3.619739E2,3.521381E2,3.738648E2,3.332574E2,3.639768E2,3.679897E2,3.825045E2,-6.9625056E-1,3.444187E2,3.575983E2,-6.1700594E-1,3.640349E2,3.768645E2,3.7553397E-1,5.610012E-1,3.417398E2,3.366662E2,3.549773E2,3.60107E2,3.648055E2,3.659742E2,2.4586956E-1,6.633224E-2,-4.0553743E-1,-3.1392312E-1,-1.5812396E-1,-2.5721344E-1,-9.993558E-2,3.428876E2,3.585835E2,3.62302E2,2.9476434E-1,3.732539E2,1.4163738E-1,3.639768E2,-3.0587768E-2,-6.515577E-2,-2.0216702E-2,1.004893E-2,4.447944E-2,9.299367E-2,4.5010123E-2,8.3577506E-2,1.068039E-2,-9.141541E-3,-2.4201965E-2,6.2727354E-2],"split_indices":[5,0,0,0,0,0,0,0,0,0,0,0,2,0,0,0,4,0,0,3,3,0,0,0,0,0,0,0,4,0,0,7,3,0,2,0,0,0,0,0,0,0,0,0,0,0,0],"split_type":[0,0,0,0,0,0,0,0,0,0,0,0,0,0,0,0,0,0,0,0,0,0,0,0,0,0,0,0,0,0,0,0,0,0,0,0,0,0,0,0,0,0,0,0,0,0,0],"sum_hessian":[4.62E2,2.63E2,1.99E2,1.41E2,1.22E2,1.29E2,7E1,7E0,1.34E2,1.21E2,1E0,8.1E1,4.8E1,5.3E1,1.7E1,7.6E1,5.8E1,5.1E1,7E1,3.6E1,4.5E1,4.7E1,1E0,2E1,5.6E1,8E0,5E1,1.7E1,3.4E1,4.8E1,2.2E1,3.2E1,4E0,4.1E1,4E0,4E0,3E1,2.2E1,2.6E1,2E1,2E0,5E0,2.7E1,3E0,1E0,1E0,3E0],"tree_param":{"num_deleted":"0","num_feature":"11","num_nodes":"47","size_leaf_vector":"1"}},{"base_weights":[6.6265976E-3,-3.676181E0,5.089634E0,-6.1919975E0,-8.5165334E-1,3.0883477E0,8.170463E0,-5.5776215E0,-1.0046234E1,-5.232249E-1,-7.071406E-1,2.0822654E0,4.6178184E0,3.471972E-1,5.320775E-1,-2.9381606E-1,-4.658709E0,-3.9067465E-1,-6.604734E-1,-1.621189E0,2.1572754E-1,2.178824E0,-1.2807465E-1,2.4464612E-1,1.3497296E-1,-6.670761E-2,-2.3586252E-1,-1.0486787E-1,-1.2616873E0,-1.7772917E-1,8.459599E-1,1.639968E0,2.6708233E0,-2.1673076E-2,1.970215E-2,-4.200535E-2,-6.748219E-2,3.0926514E-2,-1.4362444E-2,4.8894882E-2,8.860779E-3,8.4675245E-2,2.4328105E-2,1.3714656E-1,4.936829E-2],"categories":[],"categories_nodes":[],"categories_segments":[],"categories_sizes":[],"default_left":[0,0,0,0,0,0,0,0,0,0,0,0,0,0,0,0,0,0,0,0,0,0,0,0,0,0,0,0,0,0,0,0,0,0,0,0,0,0,0,0,0,0,0,0,0],"id":19,"left_children":[1,3,5,7,9,11,13,15,17,19,-1,21,23,-1,-1,-1,25,-1,-1,27,29,31,33,-1,-1,-1,-1,-1,35,37,39,41,43,-1,-1,-1,-1,-1,-1,-1,-1,-1,-1,-1,-1],"loss_changes":[8.55491E3,1.8778147E3,1.1585664E3,2.75479E2,5.4261475E2,1.7195972E2,1.5341797E2,6.3847656E0,2.3916138E1,1.0095629E2,0E0,1.5859222E1,1.1068176E1,0E0,0E0,0E0,5.1831055E-1,0E0,0E0,5.9129486E0,1.8748041E1,1.4178131E1,8.085939E-1,0E0,0E0,0E0,0E0,0E0,1.5655518E-2,4.2763586E0,2.3854465E0,1.3989868E0,1.5403595E0,0E0,0E0,0E0,0E0,0E0,0E0,0E0,0E0,0E0,0E0,0E0,0E0],"parents":[2147483647,0,0,1,1,2,2,3,3,4,4,5,5,6,6,7,7,8,8,9,9,11,11,12,12,16,16,19,19,20,20,21,21,22,22,28,28,29,29,30,30,31,31,32,32],"right_children":[2,4,6,8,10,12,14,16,18,20,-1,22,24,-1,-1,-1,26,-1,-1,28,30,32,34,-1,-1,-1,-1,-1,36,38,40,42,44,-1,-1,-1,-1,-1,-1,-1,-1,-1,-1,-1,-1],"split_conditions":[3.619739E2,3.4987787E2,3.734881E2,3.685282E2,3.650049E2,3.6734732E2,3.8236615E2,3.4517407E2,3.6057742E2,3.5613513E2,-7.071406E-1,3.659742E2,3.689439E2,3.471972E-1,5.320775E-1,-2.9381606E-1,3.410459E2,-3.9067465E-1,-6.604734E-1,3.5452258E2,3.598762E2,3.61059E2,3.708992E2,2.4464612E-1,1.3497296E-1,-6.670761E-2,-2.3586252E-1,-1.0486787E-1,2E0,3.550781E2,3.623708E2,3.6356537E2,3.670095E2,-2.1673076E-2,1.970215E-2,-4.200535E-2,-6.748219E-2,3.0926514E-2,-1.4362444E-2,4.8894882E-2,8.860779E-3,8.4675245E-2,2.4328105E-2,1.3714656E-1,4.936829E-2],"split_indices":[5,5,5,4,2,5,5,5,6,5,0,3,4,0,0,0,3,0,0,5,5,4,2,0,0,0,0,0,9,3,2,6,2,0,0,0,0,0,0,0,0,0,0,0,0],"split_type":[0,0,0,0,0,0,0,0,0,0,0,0,0,0,0,0,0,0,0,0,0,0,0,0,0,0,0,0,0,0,0,0,0,0,0,0,0,0,0,0,0,0,0,0,0],"sum_hessian":[4.55E2,2.64E2,1.91E2,1.39E2,1.25E2,1.17E2,7.4E1,1.22E2,1.7E1,1.23E2,2E0,7.2E1,4.5E1,5.2E1,2.2E1,8.8E1,3.4E1,1.2E1,5E0,4.9E1,7.4E1,6.9E1,3E0,3.8E1,7E0,1E0,3.3E1,1.9E1,3E1,4.6E1,2.8E1,3.5E1,3.4E1,2E0,1E0,7E0,2.3E1,5E0,4.1E1,2.3E1,5E0,3.3E1,2E0,3.2E1,2E0],"tree_param":{"num_deleted":"0","num_feature":"11","num_nodes":"45","size_leaf_vector":"1"}},{"base_weights":[-1.550108E-2,-3.4258015E0,4.7132945E0,-5.915785E0,-8.351734E-1,2.329056E0,6.9311876E0,-5.3597116E0,-9.294286E0,-5.348392E-1,-6.8356884E-1,1.9401864E0,3.2864332E0,5.1879883E0,8.263115E0,-1.8436737E-1,-2.7642176E-1,-3.7534443E-1,-6.2200713E-1,-1.6424352E0,2.3881492E-1,2.072783E0,1.8035889E-1,1.7665385E-1,1.5439148E0,2.7060503E-1,1.3959453E-1,3.601235E-1,5.1051474E-1,-1.3246933E-1,-1.3533692E0,-2.9834354E-1,6.189761E-1,1.6075666E0,2.5311635E0,-3.2221222E-1,7.9033405E-1,4.4075013E-3,9.429093E-2,-7.650012E-2,-5.2021552E-2,2.6496276E-2,-2.1543043E-2,1.9889308E-2,5.2479148E-2,8.4239565E-2,1.1111959E-2,1.5877405E-1,9.785478E-2,-7.9498295E-4,-2.0950826E-2,5.0901797E-2,8.3732605E-3],"categories":[],"categories_nodes":[],"categories_segments":[],"categories_sizes":[],"default_left":[0,0,0,0,0,0,0,0,0,0,0,0,0,0,0,0,0,0,0,0,0,0,0,0,0,0,0,0,0,0,0,0,0,0,0,0,0,0,0,0,0,0,0,0,0,0,0,0,0,0,0,0,0],"id":20,"left_children":[1,3,5,7,9,11,13,15,17,19,-1,21,23,25,27,-1,-1,-1,-1,29,31,33,35,-1,37,-1,-1,-1,-1,-1,39,41,43,45,47,49,51,-1,-1,-1,-1,-1,-1,-1,-1,-1,-1,-1,-1,-1,-1,-1,-1],"loss_changes":[7.466642E3,1.7302764E3,1.0097261E3,2.075664E2,5.0542313E2,2.8991638E1,1.893125E2,1.3474609E1,7.8253174E0,1.1264562E2,0E0,1.596048E1,5.7195435E0,9.591797E0,4.0050537E1,0E0,0E0,0E0,0E0,1.2132462E1,1.6112797E1,9.791962E0,2.0939908E0,0E0,2.322422E0,0E0,0E0,0E0,0E0,0E0,8.402481E-1,3.8504043E0,3.9638023E0,3.369934E0,5.2516174E0,1.119473E-1,2.5499952E-1,0E0,0E0,0E0,0E0,0E0,0E0,0E0,0E0,0E0,0E0,0E0,0E0,0E0,0E0,0E0,0E0],"parents":[2147483647,0,0,1,1,2,2,3,3,4,4,5,5,6,6,7,7,8,8,9,9,11,11,12,12,13,13,14,14,19,19,20,20,21,21,22,22,24,24,30,30,31,31,32,32,33,33,34,34,35,35,36,36],"right_children":[2,4,6,8,10,12,14,16,18,20,-1,22,24,26,28,-1,-1,-1,-1,30,32,34,36,-1,38,-1,-1,-1,-1,-1,40,42,44,46,48,50,52,-1,-1,-1,-1,-1,-1,-1,-1,-1,-1,-1,-1,-1,-1,-1,-1],"split_conditions":[3.6209756E2,3.4987787E2,3.7117932E2,3.736618E2,3.738648E2,3.6626364E2,3.7716107E2,3.423544E2,3.357706E2,3.5613513E2,-6.8356884E-1,3.659742E2,3.689439E2,3.689439E2,3.832995E2,-1.8436737E-1,-2.7642176E-1,-3.7534443E-1,-6.2200713E-1,3.5381595E2,3.5883975E2,3.61059E2,3.6424606E2,1.7665385E-1,3.2440228E0,2.7060503E-1,1.3959453E-1,3.601235E-1,5.1051474E-1,-1.3246933E-1,3.5538412E2,3.550781E2,3.608934E2,3.6356537E2,3.645048E2,3.670095E2,3.640349E2,4.4075013E-3,9.429093E-2,-7.650012E-2,-5.2021552E-2,2.6496276E-2,-2.1543043E-2,1.9889308E-2,5.2479148E-2,8.4239565E-2,1.1111959E-2,1.5877405E-1,9.785478E-2,-7.9498295E-4,-2.0950826E-2,5.0901797E-2,8.3732605E-3],"split_indices":[5,5,5,4,3,5,5,4,2,5,0,3,2,4,5,0,0,0,0,5,5,4,5,0,7,0,0,0,0,0,5,3,5,6,2,3,2,0,0,0,0,0,0,0,0,0,0,0,0,0,0,0,0],"split_type":[0,0,0,0,0,0,0,0,0,0,0,0,0,0,0,0,0,0,0,0,0,0,0,0,0,0,0,0,0,0,0,0,0,0,0,0,0,0,0,0,0,0,0,0,0,0,0,0,0,0,0,0,0],"sum_hessian":[4.61E2,2.68E2,1.93E2,1.36E2,1.32E2,9.4E1,9.9E1,1.19E2,1.7E1,1.3E2,2E0,6.9E1,2.5E1,4.5E1,5.4E1,1.3E1,1.06E2,1.3E1,4E0,5.3E1,7.7E1,6.4E1,5E0,2.1E1,4E0,4E1,5E0,3.8E1,1.6E1,1E1,4.3E1,3.2E1,4.5E1,3.4E1,3E1,3E0,2E0,1E0,3E0,2.5E1,1.8E1,4E0,2.8E1,3.1E1,1.4E1,3.2E1,2E0,1.2E1,1.8E1,1E0,2E0,1E0,1E0],"tree_param":{"num_deleted":"0","num_feature":"11","num_nodes":"53","size_leaf_vector":"1"}},{"base_weights":[-1.7155457E-1,-4.5359526E0,3.277308E0,-5.8400664E0,-1.6614056E0,1.3342662E0,6.3614216E0,-6.137741E-1,-5.4154487E0,-1.4106904E-1,-1.233786E0,3.4476036E-1,2.3695095E0,4.791192E0,8.063575E0,-3.4097767E-1,-2.4471608E-1,-1.1592102E-2,-1.2495024E0,-3.1696647E-1,6.6377074E-1,1.8294837E0,2.9637213E0,4.868607E0,9.1323346E-2,3.4290564E-1,4.8937207E-1,-7.747098E-2,-1.1103557E0,-3.6879906E-1,1.1895243E-2,3.7246704E-1,8.9607483E-1,1.8563538E0,1.6851807E-2,3.7794497E-2,1.5026027E-1,6.962281E-2,2.4543391E-1,-4.7615815E-2,-6.801224E-2,-1.9940568E-2,-2.883911E-4,2.6678367E-2,7.896542E-3,4.963684E-2,-2.2888184E-4,7.705941E-2,1.0565688E-1],"categories":[],"categories_nodes":[],"categories_segments":[],"categories_sizes":[],"default_left":[0,0,0,0,0,0,0,0,0,0,0,0,0,0,0,0,0,0,0,0,0,0,0,0,0,0,0,0,0,0,0,0,0,0,0,0,0,0,0,0,0,0,0,0,0,0,0,0,0],"id":21,"left_children":[1,3,5,7,9,11,13,-1,15,-1,17,19,21,23,25,-1,-1,-1,27,29,31,33,35,37,-1,-1,-1,-1,39,41,-1,43,45,47,-1,-1,-1,-1,-1,-1,-1,-1,-1,-1,-1,-1,-1,-1,-1],"loss_changes":[7.0592993E3,7.6628564E2,1.5615632E3,3.2155127E2,2.9256866E1,1.6513257E2,2.3131567E2,0E0,6.540454E1,0E0,4.9765778E-1,1.79426E1,1.9928192E1,3.730957E0,3.054541E1,0E0,0E0,0E0,3.2447815E-1,8.930309E-1,3.5234928E0,1.1388397E0,1.0256042E0,5.472412E-1,0E0,0E0,0E0,0E0,1.6583252E-1,2.8098035E-1,0E0,8.4890294E-1,2.7033691E0,2.2322083E-1,0E0,0E0,0E0,0E0,0E0,0E0,0E0,0E0,0E0,0E0,0E0,0E0,0E0,0E0,0E0],"parents":[2147483647,0,0,1,1,2,2,3,3,4,4,5,5,6,6,8,8,10,10,11,11,12,12,13,13,14,14,18,18,19,19,20,20,21,21,22,22,23,23,28,28,29,29,31,31,32,32,33,33],"right_children":[2,4,6,8,10,12,14,-1,16,-1,18,20,22,24,26,-1,-1,-1,28,30,32,34,36,38,-1,-1,-1,-1,40,42,-1,44,46,48,-1,-1,-1,-1,-1,-1,-1,-1,-1,-1,-1,-1,-1,-1,-1],"split_conditions":[3.575983E2,3.493539E2,3.691398E2,3.332574E2,3.54199E2,3.627058E2,3.775311E2,-6.137741E-1,3.427117E2,-1.4106904E-1,3.496187E2,3.594886E2,3.656966E2,2.7315798E0,3.825045E2,-3.4097767E-1,-2.4471608E-1,-1.1592102E-2,3.549773E2,3.5977E2,3.605447E2,3.8525624E0,3.623708E2,3.682011E2,9.1323346E-2,3.4290564E-1,4.8937207E-1,-7.747098E-2,3.56184E2,3.593012E2,1.1895243E-2,7E0,2.050939E0,3.631065E2,1.6851807E-2,3.7794497E-2,1.5026027E-1,6.962281E-2,2.4543391E-1,-4.7615815E-2,-6.801224E-2,-1.9940568E-2,-2.883911E-4,2.6678367E-2,7.896542E-3,4.963684E-2,-2.2888184E-4,7.705941E-2,1.0565688E-1],"split_indices":[0,0,0,0,0,0,0,0,0,0,3,0,0,7,0,0,0,0,0,2,0,7,2,1,0,0,0,0,2,0,0,8,7,3,0,0,0,0,0,0,0,0,0,0,0,0,0,0,0],"split_type":[0,0,0,0,0,0,0,0,0,0,0,0,0,0,0,0,0,0,0,0,0,0,0,0,0,0,0,0,0,0,0,0,0,0,0,0,0,0,0,0,0,0,0,0,0,0,0,0,0],"sum_hessian":[4.67E2,2.06E2,2.61E2,1.41E2,6.5E1,1.61E2,1E2,7E0,1.34E2,1.6E1,4.9E1,8.3E1,7.8E1,5.4E1,4.6E1,3.3E1,1.01E2,1E0,4.8E1,2.7E1,5.6E1,4.3E1,3.5E1,5.2E1,2E0,3E1,1.6E1,1.2E1,3.6E1,2.5E1,2E0,2.6E1,3E1,4.2E1,1E0,1E0,3.4E1,1E0,5.1E1,2.5E1,1.1E1,2.3E1,2E0,1.4E1,1.2E1,2.7E1,3E0,2.2E1,2E1],"tree_param":{"num_deleted":"0","num_feature":"11","num_nodes":"49","size_leaf_vector":"1"}},{"base_weights":[1.401987E-1,-3.0164227E0,4.391916E0,-5.2543344E0,-5.574434E-1,2.7160842E0,7.364191E0,-8.126723E0,-4.6287265E0,-3.7788415E-1,-5.7056963E-1,1.7845654E0,4.032708E0,3.2239977E-1,5.2514803E-1,-5.4833657E-1,-3.364285E-1,-2.5239518E-1,-3.8192039E0,-1.2619922E0,2.365401E-1,1.1698173E0,1.1074237E-1,2.1192122E-1,2.3971825E0,-4.822693E-2,-1.9321035E-1,-1.7667481E0,-1.0232536E0,-8.7999426E-2,7.431704E-1,6.5911554E-2,7.505493E-2,5.409241E-4,1.368273E-1,-6.809914E-2,-1.151941E-1,-4.503958E-2,-6.520793E-2,-1.5526551E-2,8.443868E-3,4.1657716E-2,7.2308346E-3,8.611679E-3,-7.841492E-3],"categories":[],"categories_nodes":[],"categories_segments":[],"categories_sizes":[],"default_left":[0,0,0,0,0,0,0,0,0,0,0,0,0,0,0,0,0,0,0,0,0,0,0,0,0,0,0,0,0,0,0,0,0,0,0,0,0,0,0,0,0,0,0,0,0],"id":22,"left_children":[1,3,5,7,9,11,13,15,17,19,-1,21,23,-1,-1,-1,-1,-1,25,27,29,31,-1,-1,33,-1,-1,35,37,39,41,-1,43,-1,-1,-1,-1,-1,-1,-1,-1,-1,-1,-1,-1],"loss_changes":[6.079567E3,1.4278455E3,9.4133765E2,2.0677368E2,2.3930362E2,1.4611084E2,1.307019E2,1.7537231E1,1.940503E1,6.765748E1,0E0,1.724765E1,6.9988403E0,0E0,0E0,0E0,0E0,0E0,1.796936E0,4.337906E0,1.2232594E1,5.262821E0,0E0,0E0,6.4491577E0,0E0,0E0,1.23348236E-1,9.803009E-2,2.6819484E0,1.4414597E0,0E0,1.396826E-1,0E0,0E0,0E0,0E0,0E0,0E0,0E0,0E0,0E0,0E0,0E0,0E0],"parents":[2147483647,0,0,1,1,2,2,3,3,4,4,5,5,6,6,7,7,8,8,9,9,11,11,12,12,18,18,19,19,20,20,21,21,24,24,27,27,28,28,29,29,30,30,32,32],"right_children":[2,4,6,8,10,12,14,16,18,20,-1,22,24,-1,-1,-1,-1,-1,26,28,30,32,-1,-1,34,-1,-1,36,38,40,42,-1,44,-1,-1,-1,-1,-1,-1,-1,-1,-1,-1,-1,-1],"split_conditions":[3.6209756E2,3.521381E2,3.744382E2,3.4173E2,3.638311E2,3.679897E2,3.870462E2,3.332574E2,3.449314E2,3.575983E2,-5.7056963E-1,3.640349E2,3.689439E2,3.2239977E-1,5.2514803E-1,-5.4833657E-1,-3.364285E-1,-2.5239518E-1,3.42889E2,3.547816E2,3.597876E2,1.5225114E0,1.1074237E-1,2.1192122E-1,3.727686E2,-4.822693E-2,-1.9321035E-1,1.0249751E0,3.56184E2,3.585835E2,3.623708E2,6.5911554E-2,3.712259E2,5.409241E-4,1.368273E-1,-6.809914E-2,-1.151941E-1,-4.503958E-2,-6.520793E-2,-1.5526551E-2,8.443868E-3,4.1657716E-2,7.2308346E-3,8.611679E-3,-7.841492E-3],"split_indices":[5,0,5,0,0,0,0,0,0,0,0,0,4,0,0,0,0,0,1,0,0,7,0,0,2,0,0,7,2,0,2,0,4,0,0,0,0,0,0,0,0,0,0,0,0],"split_type":[0,0,0,0,0,0,0,0,0,0,0,0,0,0,0,0,0,0,0,0,0,0,0,0,0,0,0,0,0,0,0,0,0,0,0,0,0,0,0,0,0,0,0,0,0],"sum_hessian":[4.51E2,2.59E2,1.92E2,1.35E2,1.24E2,1.24E2,6.8E1,2.2E1,1.13E2,1.23E2,1E0,7.4E1,5E1,5.5E1,1.3E1,5E0,1.7E1,7.1E1,4.2E1,5E1,7.3E1,3.2E1,4.2E1,4.3E1,7E0,1E0,4.1E1,1.4E1,3.6E1,4.5E1,2.8E1,2.8E1,4E0,1E0,6E0,1E1,4E0,2.8E1,8E0,2.4E1,2.1E1,2.4E1,4E0,3E0,1E0],"tree_param":{"num_deleted":"0","num_feature":"11","num_nodes":"45","size_leaf_vector":"1"}},{"base_weights":[-4.2979896E-2,-4.0313616E0,2.9153512E0,-5.5158987E0,-1.8543587E0,1.1847568E0,5.640055E0,-5.7796764E-1,-5.034974E0,-3.282734E0,-1.2521026E0,4.1782632E-1,2.2679646E0,4.4297185E0,7.0961456E0,-3.084739E-1,-2.2723372E-1,-6.675263E-2,-1.699556E-1,-1.7003425E0,-1.0504622E0,-4.024311E-2,8.860654E-1,1.9065609E0,1.4766964E-1,4.499061E0,8.0625914E-2,3.138983E-1,4.8811102E-1,-1.2824956E0,-1.0570265E-1,-8.0234784E-1,-5.6975197E-2,-2.5892097E-1,2.844834E-1,9.743702E-1,2.1704102E-1,2.367487E0,1.6253071E0,6.258469E-2,2.2670367E-1,-7.1002044E-2,2.3239136E-3,-1.0176087E-2,-4.1529194E-2,-1.0012291E-2,-3.6990356E-2,2.1504212E-2,5.6510232E-3,2.0106887E-2,5.372336E-2,2.3473104E-2,1.1090088E-3,6.143239E-2,1.3867229E-1,5.4850336E-2,9.56926E-2],"categories":[],"categories_nodes":[],"categories_segments":[],"categories_sizes":[],"default_left":[0,0,0,0,0,0,0,0,0,0,0,0,0,0,0,0,0,0,0,0,0,0,0,0,0,0,0,0,0,0,0,0,0,0,0,0,0,0,0,0,0,0,0,0,0,0,0,0,0,0,0,0,0,0,0,0,0],"id":23,"left_children":[1,3,5,7,9,11,13,-1,15,17,19,21,23,25,27,-1,-1,-1,-1,29,31,33,35,37,-1,39,-1,-1,-1,41,-1,43,-1,45,47,49,51,53,55,-1,-1,-1,-1,-1,-1,-1,-1,-1,-1,-1,-1,-1,-1,-1,-1,-1,-1],"loss_changes":[5.56906E3,6.393716E2,1.2711799E3,2.8766602E2,6.729025E1,1.3778679E2,1.5361401E2,0E0,3.426172E1,9.0200806E-1,3.6368484E0,2.1269775E1,1.1461609E1,4.4664307E0,3.90542E1,0E0,0E0,0E0,0E0,2.2748184E-1,5.7792664E-2,3.6951942E0,2.683342E0,2.3746796E0,0E0,9.189453E-1,0E0,0E0,0E0,2.0767345E0,0E0,8.458519E-2,0E0,7.265551E-1,4.756596E-1,2.030899E0,3.338961E-1,3.9895706E0,2.9309616E0,0E0,0E0,0E0,0E0,0E0,0E0,0E0,0E0,0E0,0E0,0E0,0E0,0E0,0E0,0E0,0E0,0E0,0E0],"parents":[2147483647,0,0,1,1,2,2,3,3,4,4,5,5,6,6,8,8,9,9,10,10,11,11,12,12,13,13,14,14,19,19,20,20,21,21,22,22,23,23,25,25,29,29,31,31,33,33,34,34,35,35,36,36,37,37,38,38],"right_children":[2,4,6,8,10,12,14,-1,16,18,20,22,24,26,28,-1,-1,-1,-1,30,32,34,36,38,-1,40,-1,-1,-1,42,-1,44,-1,46,48,50,52,54,56,-1,-1,-1,-1,-1,-1,-1,-1,-1,-1,-1,-1,-1,-1,-1,-1,-1,-1],"split_conditions":[3.575983E2,3.456443E2,3.691398E2,3.332574E2,3.521381E2,3.634925E2,3.775311E2,-5.7796764E-1,3.427117E2,3.42889E2,3.547816E2,3.60107E2,3.670095E2,2.7315798E0,3.870462E2,-3.084739E-1,-2.2723372E-1,-6.675263E-2,-1.699556E-1,1.0249751E0,2E0,3.596902E2,2.050939E0,3.640996E2,1.4766964E-1,3.682011E2,8.0625914E-2,3.138983E-1,4.8811102E-1,7.7400714E-1,-1.0570265E-1,3.548391E2,-5.6975197E-2,3.596219E2,3.597911E2,3.602381E2,3.593012E2,1.0813961E0,3.651822E2,6.258469E-2,2.2670367E-1,-7.1002044E-2,2.3239136E-3,-1.0176087E-2,-4.1529194E-2,-1.0012291E-2,-3.6990356E-2,2.1504212E-2,5.6510232E-3,2.0106887E-2,5.372336E-2,2.3473104E-2,1.1090088E-3,6.143239E-2,1.3867229E-1,5.4850336E-2,9.56926E-2],"split_indices":[0,0,0,0,0,0,0,0,0,1,0,0,0,7,0,0,0,0,0,7,9,5,7,1,0,1,0,0,0,7,0,1,0,1,1,5,4,7,0,0,0,0,0,0,0,0,0,0,0,0,0,0,0,0,0,0,0],"split_type":[0,0,0,0,0,0,0,0,0,0,0,0,0,0,0,0,0,0,0,0,0,0,0,0,0,0,0,0,0,0,0,0,0,0,0,0,0,0,0,0,0,0,0,0,0,0,0,0,0,0,0,0,0,0,0,0,0],"sum_hessian":[4.7E2,2E2,2.7E2,1.18E2,8.2E1,1.66E2,1.04E2,7E0,1.11E2,2.3E1,5.9E1,9.8E1,6.8E1,5.9E1,4.5E1,3E1,8.1E1,2E0,2.1E1,1.6E1,4.3E1,5E1,4.8E1,4.7E1,2.1E1,5.7E1,2E0,3.7E1,8E0,1E1,6E0,1.4E1,2.9E1,3E1,2E1,4.2E1,6E0,1.5E1,3.2E1,1E0,5.6E1,9E0,1E0,1E0,1.3E1,2.8E1,2E0,1E1,1E1,7E0,3.5E1,2E0,4E0,5E0,1E1,1.3E1,1.9E1],"tree_param":{"num_deleted":"0","num_feature":"11","num_nodes":"57","size_leaf_vector":"1"}},{"base_weights":[5.6462726E-3,-3.0004447E0,3.891541E0,-4.947512E0,-5.700299E-1,2.363236E0,6.4545426E0,-5.559299E-1,-4.5123515E0,-3.854714E-1,-5.586983E-1,1.5844074E0,3.5385897E0,2.759826E-1,4.3981287E-1,-2.722653E-1,-3.8555894E0,-1.2053891E0,2.56636E-1,1.0726247E0,1.9209225E0,1.8671207E-1,2.2106323E0,-1.2116311E-1,-2.007128E-1,-7.8757524E-2,-9.9729663E-1,-2.0904642E-1,6.175264E-1,1.1630082E0,1.0399628E-1,1.0217692E-1,7.424571E-1,-3.164673E-3,1.2513924E-1,-4.1820835E-2,-6.659714E-2,-1.6209641E-2,9.657427E-4,2.5326198E-2,8.718567E-2,2.0237224E-2,6.0067277E-2,1.204834E-2,-7.672882E-3,-2.9312134E-2,5.627228E-2],"categories":[],"categories_nodes":[],"categories_segments":[],"categories_sizes":[],"default_left":[0,0,0,0,0,0,0,0,0,0,0,0,0,0,0,0,0,0,0,0,0,0,0,0,0,0,0,0,0,0,0,0,0,0,0,0,0,0,0,0,0,0,0,0,0,0,0],"id":24,"left_children":[1,3,5,7,9,11,13,-1,15,17,-1,19,21,-1,-1,-1,23,25,27,29,31,-1,33,-1,-1,-1,35,37,39,41,43,-1,45,-1,-1,-1,-1,-1,-1,-1,-1,-1,-1,-1,-1,-1,-1],"loss_changes":[5.490231E3,1.251208E3,7.877412E2,3.4458423E2,2.2858125E2,1.13395325E2,1.1783081E2,0E0,6.4174805E1,6.2433426E1,0E0,1.1717392E1,4.9956665E0,0E0,0E0,0E0,9.589722E0,2.4302216E0,1.1389133E1,2.8556824E0,5.2742004E0,0E0,6.1374016E0,0E0,0E0,0E0,8.241005E-1,7.9511094E-1,3.8671284E0,4.1493225E-1,1.7803258E-1,0E0,3.7130442E0,0E0,0E0,0E0,0E0,0E0,0E0,0E0,0E0,0E0,0E0,0E0,0E0,0E0,0E0],"parents":[2147483647,0,0,1,1,2,2,3,3,4,4,5,5,6,6,8,8,9,9,11,11,12,12,16,16,17,17,18,18,19,19,20,20,22,22,26,26,27,27,28,28,29,29,30,30,32,32],"right_children":[2,4,6,8,10,12,14,-1,16,18,-1,20,22,-1,-1,-1,24,26,28,30,32,-1,34,-1,-1,-1,36,38,40,42,44,-1,46,-1,-1,-1,-1,-1,-1,-1,-1,-1,-1,-1,-1,-1,-1],"split_conditions":[3.619739E2,3.521381E2,3.738648E2,3.332574E2,3.639768E2,3.679897E2,3.825045E2,-5.559299E-1,3.432113E2,3.575983E2,-5.586983E-1,3.640349E2,3.689439E2,2.759826E-1,4.3981287E-1,-2.722653E-1,3.366662E2,3.547816E2,3.594886E2,3.648055E2,3.659742E2,1.8671207E-1,3.727686E2,-1.2116311E-1,-2.007128E-1,-7.8757524E-2,3.56184E2,3.585835E2,3.62302E2,3.6206003E2,3.732539E2,1.0217692E-1,3.639768E2,-3.164673E-3,1.2513924E-1,-4.1820835E-2,-6.659714E-2,-1.6209641E-2,9.657427E-4,2.5326198E-2,8.718567E-2,2.0237224E-2,6.0067277E-2,1.204834E-2,-7.672882E-3,-2.9312134E-2,5.627228E-2],"split_indices":[5,0,0,0,0,0,0,0,0,0,0,0,4,0,0,0,4,0,0,3,3,0,2,0,0,0,2,0,0,5,3,0,2,0,0,0,0,0,0,0,0,0,0,0,0,0,0],"split_type":[0,0,0,0,0,0,0,0,0,0,0,0,0,0,0,0,0,0,0,0,0,0,0,0,0,0,0,0,0,0,0,0,0,0,0,0,0,0,0,0,0,0,0,0,0,0,0],"sum_hessian":[4.68E2,2.64E2,2.04E2,1.46E2,1.18E2,1.29E2,7.5E1,8E0,1.38E2,1.17E2,1E0,7.9E1,5E1,5.6E1,1.9E1,5.4E1,8.4E1,5.1E1,6.6E1,3.3E1,4.6E1,4.2E1,8E0,1E1,7.4E1,1.6E1,3.5E1,2.9E1,3.7E1,3E1,3E0,4.1E1,5E0,1E0,7E0,2.6E1,9E0,1.9E1,1E1,3.5E1,2E0,2E0,2.8E1,2E0,1E0,1E0,4E0],"tree_param":{"num_deleted":"0","num_feature":"11","num_nodes":"47","size_leaf_vector":"1"}},{"base_weights":[-4.6747226E-2,-2.7137208E0,3.7419627E0,-4.700439E0,-4.957317E-1,2.1165953E0,5.77741E0,-4.2912693E0,-5.611103E-1,-3.331858E-1,-5.4473114E-1,1.4948997E0,1.6276024E-1,5.0730987E0,8.541704E0,-2.7975282E-1,-3.8966796E0,-9.393148E-1,4.701977E-1,1.1152096E0,1.8341873E0,1.9892181E-1,2.6982817E-1,4.3870422E-1,1.264E-1,-2.1328564E-1,-1.6452548E-1,-1.2553791E0,-5.212555E-1,1.903002E-1,9.409601E-1,1.2858022E0,3.3608627E-1,1.3626033E0,1.0164267E-1,-5.572281E-2,-1.0376587E-1,1.1625672E-2,-2.755714E-2,5.148259E-3,1.9368397E-2,3.3984628E-2,9.40712E-2,2.3563003E-2,6.794264E-2,-1.9928487E-2,3.2369997E-2,7.3346585E-2,2.4554444E-2],"categories":[],"categories_nodes":[],"categories_segments":[],"categories_sizes":[],"default_left":[0,0,0,0,0,0,0,0,0,0,0,0,0,0,0,0,0,0,0,0,0,0,0,0,0,0,0,0,0,0,0,0,0,0,0,0,0,0,0,0,0,0,0,0,0,0,0,0,0],"id":25,"left_children":[1,3,5,7,9,11,13,15,-1,17,-1,19,-1,21,23,-1,25,27,29,31,33,-1,-1,-1,-1,-1,-1,35,37,39,41,43,45,47,-1,-1,-1,-1,-1,-1,-1,-1,-1,-1,-1,-1,-1,-1,-1],"loss_changes":[4.7693223E3,1.2182755E3,6.328999E2,3.4144507E2,2.1948929E2,7.29993E1,1.2410278E2,4.9708008E1,0E0,6.423264E1,0E0,7.358658E0,0E0,3.670166E0,1.7858887E-1,0E0,1.05703125E1,9.255646E0,7.3315535E0,4.48563E0,6.964874E-1,0E0,0E0,0E0,0E0,0E0,0E0,2.5401688E0,8.941059E-1,5.9691846E-1,3.881176E0,1.1447067E0,2.0877013E0,5.525398E-1,0E0,0E0,0E0,0E0,0E0,0E0,0E0,0E0,0E0,0E0,0E0,0E0,0E0,0E0,0E0],"parents":[2147483647,0,0,1,1,2,2,3,3,4,4,5,5,6,6,7,7,9,9,11,11,13,13,14,14,16,16,17,17,18,18,19,19,20,20,27,27,28,28,29,29,30,30,31,31,32,32,33,33],"right_children":[2,4,6,8,10,12,14,16,-1,18,-1,20,-1,22,24,-1,26,28,30,32,34,-1,-1,-1,-1,-1,-1,36,38,40,42,44,46,48,-1,-1,-1,-1,-1,-1,-1,-1,-1,-1,-1,-1,-1,-1,-1],"split_conditions":[3.619739E2,3.521381E2,3.727686E2,3.6057742E2,3.639768E2,3.679897E2,3.825045E2,3.427117E2,-5.611103E-1,3.585835E2,-5.4473114E-1,3.645048E2,1.6276024E-1,3.7405588E2,3.804012E2,-2.7975282E-1,3.449314E2,3.558364E2,3.605447E2,1.5225114E0,3.6435953E2,1.9892181E-1,2.6982817E-1,4.3870422E-1,1.264E-1,-2.1328564E-1,-1.6452548E-1,3.565009E2,3.428876E2,6.6910875E-1,3.594886E2,3.62302E2,3.645048E2,3.652997E2,1.0164267E-1,-5.572281E-2,-1.0376587E-1,1.1625672E-2,-2.755714E-2,5.148259E-3,1.9368397E-2,3.3984628E-2,9.40712E-2,2.3563003E-2,6.794264E-2,-1.9928487E-2,3.2369997E-2,7.3346585E-2,2.4554444E-2],"split_indices":[5,0,0,6,0,0,0,0,0,0,0,0,0,5,4,0,0,0,0,7,6,0,0,0,0,0,0,2,4,7,4,0,2,5,0,0,0,0,0,0,0,0,0,0,0,0,0,0,0],"split_type":[0,0,0,0,0,0,0,0,0,0,0,0,0,0,0,0,0,0,0,0,0,0,0,0,0,0,0,0,0,0,0,0,0,0,0,0,0,0,0,0,0,0,0,0,0,0,0,0,0],"sum_hessian":[4.7E2,2.76E2,1.94E2,1.45E2,1.31E2,1.09E2,8.5E1,1.38E2,7E0,1.3E2,1E0,7.2E1,3.7E1,7E1,1.5E1,2.9E1,1.09E2,7.4E1,5.6E1,3.6E1,3.6E1,1.9E1,5.1E1,1.4E1,1E0,6.4E1,4.5E1,4.1E1,3.3E1,3.6E1,2E1,2.9E1,7E0,1.3E1,2.3E1,3.7E1,4E0,1E0,3.2E1,2.6E1,1E1,1.7E1,3E0,3E0,2.6E1,2E0,5E0,1.1E1,2E0],"tree_param":{"num_deleted":"0","num_feature":"11","num_nodes":"49","size_leaf_vector":"1"}},{"base_weights":[-1.538416E-2,-3.5734224E0,2.639519E0,-3.0912373E0,-7.8519044E0,1.0805779E0,5.335779E0,-3.8768024E0,-1.0898168E0,-2.8406748E-1,-5.380618E-1,5.2952534E-1,1.9963832E0,4.248342E0,3.5809088E-1,-2.0531543E-1,-3.2137666E0,-9.602466E-1,-1.0449066E-1,5.178833E-2,9.9727124E-1,1.6192985E0,2.6083872E0,3.5874033E0,4.9227896E0,-4.429703E-2,-1.6269095E-1,-1.0356311E0,-1.1989136E-1,-2.1026763E-1,2.0441571E-1,1.2098461E0,1.701533E-1,8.425074E-2,1.1260986E-2,1.4444679E-1,1.3787689E0,1.828651E-1,3.0271148E-2,2.6079187E-1,1.4894867E-1,-5.8553208E-2,-3.6694814E-2,3.7568666E-2,-2.6277542E-2,2.3819478E-2,-1.5651448E-2,1.6019968E-2,-7.6680505E-3,4.7371E-2,1.0334032E-1,2.03228E-2,-1.2098084E-2,8.558777E-2,-7.1540833E-3],"categories":[],"categories_nodes":[],"categories_segments":[],"categories_sizes":[],"default_left":[0,0,0,0,0,0,0,0,0,0,0,0,0,0,0,0,0,0,0,0,0,0,0,0,0,0,0,0,0,0,0,0,0,0,0,0,0,0,0,0,0,0,0,0,0,0,0,0,0,0,0,0,0,0,0],"id":26,"left_children":[1,3,5,7,9,11,13,15,17,-1,-1,19,21,23,-1,-1,25,27,-1,29,31,33,35,37,39,-1,-1,41,43,45,47,49,51,-1,-1,-1,53,-1,-1,-1,-1,-1,-1,-1,-1,-1,-1,-1,-1,-1,-1,-1,-1,-1,-1],"loss_changes":[4.288582E3,3.7595386E2,1.0870951E3,2.7249036E2,5.8843994E1,8.27159E1,1.5821582E2,5.9769287E0,4.601322E0,0E0,0E0,2.3411606E1,1.0084457E1,9.977661E0,0E0,0E0,5.670166E-1,2.8532715E0,0E0,2.1628187E0,9.112839E0,3.3766708E0,3.6061096E0,5.0810547E0,4.1186523E-1,0E0,0E0,8.9775085E-1,2.1620688E0,1.5603601E0,1.4600092E0,7.487198E0,1.2669533E0,0E0,0E0,0E0,3.2854557E0,0E0,0E0,0E0,0E0,0E0,0E0,0E0,0E0,0E0,0E0,0E0,0E0,0E0,0E0,0E0,0E0,0E0,0E0],"parents":[2147483647,0,0,1,1,2,2,3,3,4,4,5,5,6,6,7,7,8,8,11,11,12,12,13,13,16,16,17,17,19,19,20,20,21,21,22,22,23,23,24,24,27,27,28,28,29,29,30,30,31,31,32,32,36,36],"right_children":[2,4,6,8,10,12,14,16,18,-1,-1,20,22,24,-1,-1,26,28,-1,30,32,34,36,38,40,-1,-1,42,44,46,48,50,52,-1,-1,-1,54,-1,-1,-1,-1,-1,-1,-1,-1,-1,-1,-1,-1,-1,-1,-1,-1,-1,-1],"split_conditions":[3.5669507E2,3.700856E2,3.7117932E2,3.4987787E2,3.357706E2,3.6424606E2,3.7950278E2,3.4517407E2,3.549773E2,-2.8406748E-1,-5.380618E-1,3.602381E2,3.6734732E2,3.751197E2,3.5809088E-1,-2.0531543E-1,3.3988712E2,3.5550476E2,-1.0449066E-1,3.584587E2,3.634925E2,3.679897E2,3.689439E2,3.768645E2,3.757067E2,-4.429703E-2,-1.6269095E-1,3.5452237E2,3.55297E2,3.496763E2,7E0,9.997728E-1,3.606146E2,8.425074E-2,1.1260986E-2,1.4444679E-1,3E0,1.828651E-1,3.0271148E-2,2.6079187E-1,1.4894867E-1,-5.8553208E-2,-3.6694814E-2,3.7568666E-2,-2.6277542E-2,2.3819478E-2,-1.5651448E-2,1.6019968E-2,-7.6680505E-3,4.7371E-2,1.0334032E-1,2.03228E-2,-1.2098084E-2,8.558777E-2,-7.1540833E-3],"split_indices":[5,4,5,5,2,5,5,5,4,0,0,5,5,5,0,0,6,6,0,5,2,2,2,2,4,0,0,6,2,4,8,7,4,0,0,0,9,0,0,0,0,0,0,0,0,0,0,0,0,0,0,0,0,0,0],"split_type":[0,0,0,0,0,0,0,0,0,0,0,0,0,0,0,0,0,0,0,0,0,0,0,0,0,0,0,0,0,0,0,0,0,0,0,0,0,0,0,0,0,0,0,0,0,0,0,0,0,0,0,0,0,0,0],"sum_hessian":[4.52E2,1.93E2,2.59E2,1.75E2,1.8E1,1.65E2,9.4E1,1.25E2,5E1,1.2E1,6E0,1.04E2,6.1E1,6.1E1,3.3E1,8.9E1,3.6E1,4.6E1,4E0,5.2E1,5.2E1,4E1,2.1E1,3.4E1,2.7E1,1E0,3.5E1,4.2E1,4E0,1.9E1,3.3E1,4.1E1,1.1E1,3.8E1,2E0,1.6E1,5E0,3.3E1,1E0,2.2E1,5E0,2.7E1,1.5E1,1E0,3E0,2E0,1.7E1,2.5E1,8E0,3.3E1,8E0,7E0,4E0,4E0,1E0],"tree_param":{"num_deleted":"0","num_feature":"11","num_nodes":"55","size_leaf_vector":"1"}},{"base_weights":[-1.14127584E-1,-3.2696278E0,2.2732956E0,-4.0902247E0,-9.572682E-1,5.4062E-1,4.7659755E0,-3.773422E0,-3.8896126E-1,-8.251826E-1,-1.6301231E0,8.359514E-1,-5.630062E-1,3.8621786E0,6.9737687E0,-2.346478E-1,-3.4716172E0,-9.7580475E-1,4.990387E-2,-8.697532E-2,-2.1611024E-2,1.4093967E-1,1.4311857E0,4.0393248E0,1.7408028E0,4.125362E-1,2.7184108E-1,-8.936279E-2,-3.5183172E0,-5.5533838E-2,-5.998746E-1,-4.7717285E-1,4.6158448E-1,-1.1683978E-1,3.4012493E-1,1.5089195E0,1.5620422E-1,3.0603743E0,2.2381663E-1,3.0051675E-1,1.08540595E-1,-1.9189914E-1,-1.5631185E-1,-2.2140504E-3,-3.2124203E-2,-2.7798463E-2,-6.0195923E-3,3.2362748E-2,-7.0274356E-3,2.2177888E-2,-7.4106692E-3,2.6302883E-2,-1.4812215E-3,4.8966166E-2,8.954301E-2,3.1967163E-3,1.13581335E-2,1.555694E-1,4.4625856E-2,-6.9755553E-3,2.9514313E-2],"categories":[],"categories_nodes":[],"categories_segments":[],"categories_sizes":[],"default_left":[0,0,0,0,0,0,0,0,0,0,0,0,0,0,0,0,0,0,0,0,0,0,0,0,0,0,0,0,0,0,0,0,0,0,0,0,0,0,0,0,0,0,0,0,0,0,0,0,0,0,0,0,0,0,0,0,0,0,0,0,0],"id":27,"left_children":[1,3,5,7,9,11,13,15,-1,17,19,21,-1,23,25,-1,27,29,31,-1,-1,33,35,37,39,-1,-1,-1,41,-1,43,45,47,49,51,53,55,57,-1,59,-1,-1,-1,-1,-1,-1,-1,-1,-1,-1,-1,-1,-1,-1,-1,-1,-1,-1,-1,-1,-1],"loss_changes":[3.585852E3,3.8507495E2,1.1678739E3,1.4711743E2,3.5429459E0,5.7051886E2,1.9455518E2,2.2838379E1,0E0,6.375454E0,2.9639435E-1,6.516209E1,0E0,2.3407715E1,1.5983276E1,0E0,2.36438E0,1.4125328E0,1.9561536E0,0E0,0E0,3.8393342E0,8.188568E0,1.7958496E1,4.302326E0,0E0,0E0,0E0,1.2869873E0,0E0,2.7930593E-1,4.55181E-2,6.4996254E-1,6.459369E-1,2.9030213E0,1.019133E1,2.4760485E-2,9.837341E-2,0E0,4.648715E-1,0E0,0E0,0E0,0E0,0E0,0E0,0E0,0E0,0E0,0E0,0E0,0E0,0E0,0E0,0E0,0E0,0E0,0E0,0E0,0E0,0E0],"parents":[2147483647,0,0,1,1,2,2,3,3,4,4,5,5,6,6,7,7,9,9,10,10,11,11,13,13,14,14,16,16,17,17,18,18,21,21,22,22,23,23,24,24,28,28,30,30,31,31,32,32,33,33,34,34,35,35,36,36,37,37,39,39],"right_children":[2,4,6,8,10,12,14,16,-1,18,20,22,-1,24,26,-1,28,30,32,-1,-1,34,36,38,40,-1,-1,-1,42,-1,44,46,48,50,52,54,56,58,-1,60,-1,-1,-1,-1,-1,-1,-1,-1,-1,-1,-1,-1,-1,-1,-1,-1,-1,-1,-1,-1,-1],"split_conditions":[3.575983E2,3.521381E2,3.685282E2,3.585835E2,3.565009E2,3.9456909E0,3.814241E2,3.428603E2,-3.8896126E-1,1.1140169E0,3.573989E2,3.619915E2,-5.630062E-1,2.7315798E0,3.818488E2,-2.346478E-1,3.42889E2,3.55297E2,3.548391E2,-8.697532E-2,-2.1611024E-2,3.593012E2,2.3349438E0,7E0,3.2440228E0,4.125362E-1,2.7184108E-1,-8.936279E-2,3.447056E2,-5.5533838E-2,3.532521E2,3.533759E2,3.556705E2,3.548391E2,7E0,3.6248126E2,3.736618E2,3.7248895E2,2.2381663E-1,3.725358E2,1.08540595E-1,-1.9189914E-1,-1.5631185E-1,-2.2140504E-3,-3.2124203E-2,-2.7798463E-2,-6.0195923E-3,3.2362748E-2,-7.0274356E-3,2.2177888E-2,-7.4106692E-3,2.6302883E-2,-1.4812215E-3,4.8966166E-2,8.954301E-2,3.1967163E-3,1.13581335E-2,1.555694E-1,4.4625856E-2,-6.9755553E-3,2.9514313E-2],"split_indices":[1,1,1,3,2,7,1,1,0,7,1,1,0,7,3,0,1,2,1,0,0,1,7,8,7,0,0,0,1,0,3,1,6,3,8,6,3,6,0,1,0,0,0,0,0,0,0,0,0,0,0,0,0,0,0,0,0,0,0,0,0],"split_type":[0,0,0,0,0,0,0,0,0,0,0,0,0,0,0,0,0,0,0,0,0,0,0,0,0,0,0,0,0,0,0,0,0,0,0,0,0,0,0,0,0,0,0,0,0,0,0,0,0,0,0,0,0,0,0,0,0,0,0,0,0],"sum_hessian":[4.74E2,2.04E2,2.7E2,1.5E2,5.4E1,1.6E2,1.1E2,1.4E2,1E1,4.7E1,7E0,1.57E2,3E0,8E1,3E1,3.1E1,1.09E2,4E1,7E0,6E0,1E0,7.3E1,8.4E1,7.3E1,7E0,1.4E1,1.6E1,4E0,1.05E2,2.8E1,1.2E1,3E0,4E0,3.2E1,4.1E1,7.9E1,5E0,2.5E1,4.8E1,2E0,5E0,5.3E1,5.2E1,1E0,1.1E1,2E0,1E0,3E0,1E0,1E0,3.1E1,2.7E1,1.4E1,2.9E1,5E1,3E0,2E0,2.4E1,1E0,1E0,1E0],"tree_param":{"num_deleted":"0","num_feature":"11","num_nodes":"61","size_leaf_vector":"1"}},{"base_weights":[8.751456E-2,-2.927245E0,2.4491274E0,-4.0199656E0,-1.1058683E0,8.758008E-1,4.673412E0,-6.128198E0,-3.4791982E0,-1.0609299E-1,-7.5397676E-1,1.0203995E0,-5.167351E-1,3.7608757E0,6.730405E0,-2.534357E-1,-4.2309317E-1,-1.8487933E-1,-2.839093E0,-9.9748397E-1,-5.2495575E-1,4.4841146E-1,1.7730646E0,3.209619E0,4.401326E0,3.8824233E-1,2.6376563E-1,-3.0844117E-2,-1.4472246E-1,-5.869293E-3,-5.1340956E-2,-2.6569214E-1,-7.1184456E-1,1.1401769E-1,6.98586E-1,1.8055265E0,-6.8008425E-3,1.6565928E-1,6.728287E-2,2.2939001E-1,1.2384033E-1,-2.3895416E-2,6.614176E-3,-4.6463154E-2,-1.619568E-2,-2.1469963E-3,1.2156169E-2,3.673845E-2,1.1661072E-2,7.3273174E-2,1.0546432E-1],"categories":[],"categories_nodes":[],"categories_segments":[],"categories_sizes":[],"default_left":[0,0,0,0,0,0,0,0,0,0,0,0,0,0,0,0,0,0,0,0,0,0,0,0,0,0,0,0,0,0,0,0,0,0,0,0,0,0,0,0,0,0,0,0,0,0,0,0,0,0,0],"id":28,"left_children":[1,3,5,7,9,11,13,15,17,-1,19,21,-1,23,25,-1,-1,-1,27,29,31,33,35,37,39,-1,-1,-1,-1,-1,-1,41,43,45,47,49,-1,-1,-1,-1,-1,-1,-1,-1,-1,-1,-1,-1,-1,-1,-1],"loss_changes":[3.2252712E3,3.9161548E2,8.847864E2,1.2004675E2,2.5571602E1,2.536991E2,1.7178125E2,1.6448792E1,3.6212158E0,0E0,2.710926E0,6.3351746E1,0E0,1.2352295E1,5.699463E0,0E0,0E0,0E0,1.9048615E0,5.765438E-1,1.3613796E0,7.114834E0,4.2118073E0,4.0355225E0,1.2084961E-1,0E0,0E0,0E0,0E0,0E0,0E0,1.3300725E0,1.2171803E0,7.8047633E-1,6.5371513E-1,3.416687E0,0E0,0E0,0E0,0E0,0E0,0E0,0E0,0E0,0E0,0E0,0E0,0E0,0E0,0E0,0E0],"parents":[2147483647,0,0,1,1,2,2,3,3,4,4,5,5,6,6,7,7,8,8,10,10,11,11,13,13,14,14,18,18,19,19,20,20,21,21,22,22,23,23,24,24,31,31,32,32,33,33,34,34,35,35],"right_children":[2,4,6,8,10,12,14,16,18,-1,20,22,-1,24,26,-1,-1,-1,28,30,32,34,36,38,40,-1,-1,-1,-1,-1,-1,42,44,46,48,50,-1,-1,-1,-1,-1,-1,-1,-1,-1,-1,-1,-1,-1,-1,-1],"split_conditions":[3.581811E2,3.460351E2,3.691398E2,3.417398E2,3.54199E2,3.8525624E0,3.808602E2,3.814241E2,3.44897E2,-1.0609299E-1,3.551211E2,3.634925E2,-5.167351E-1,3.756855E2,3.818488E2,-2.534357E-1,-4.2309317E-1,-1.8487933E-1,3.40634E2,3.496187E2,3.560794E2,3.60107E2,3.689439E2,3.689439E2,1.2685641E0,3.8824233E-1,2.6376563E-1,-3.0844117E-2,-1.4472246E-1,-5.869293E-3,-5.1340956E-2,9.803625E-1,3.573989E2,3.594886E2,3.641027E2,3.657375E2,-6.8008425E-3,1.6565928E-1,6.728287E-2,2.2939001E-1,1.2384033E-1,-2.3895416E-2,6.614176E-3,-4.6463154E-2,-1.619568E-2,-2.1469963E-3,1.2156169E-2,3.673845E-2,1.1661072E-2,7.3273174E-2,1.0546432E-1],"split_indices":[0,0,0,0,0,7,0,4,0,0,2,0,0,0,3,0,0,0,3,3,2,0,0,4,7,0,0,0,0,0,0,7,0,0,2,0,0,0,0,0,0,0,0,0,0,0,0,0,0,0,0],"split_type":[0,0,0,0,0,0,0,0,0,0,0,0,0,0,0,0,0,0,0,0,0,0,0,0,0,0,0,0,0,0,0,0,0,0,0,0,0,0,0,0,0,0,0,0,0,0,0,0,0,0,0],"sum_hessian":[4.51E2,1.98E2,2.53E2,1.23E2,7.5E1,1.49E2,1.04E2,2.3E1,1E2,1.8E1,5.7E1,1.48E2,1E0,7.4E1,3E1,1.8E1,5E0,7.1E1,2.9E1,2.6E1,3.1E1,8.5E1,6.3E1,4.3E1,3.1E1,1.5E1,1.5E1,1E0,2.8E1,1E0,2.5E1,1.4E1,1.7E1,3.7E1,4.8E1,6.2E1,1E0,4E1,3E0,2.7E1,4E0,9E0,5E0,1E1,7E0,1.7E1,2E1,4.4E1,4E0,3.2E1,3E1],"tree_param":{"num_deleted":"0","num_feature":"11","num_nodes":"51","size_leaf_vector":"1"}},{"base_weights":[6.2804385E-3,-2.2479155E0,2.9930587E0,-3.7841866E0,-5.9894603E-1,1.9603773E0,5.31408E0,-3.4134028E0,-7.058324E0,-3.5053667E-1,-5.457647E-1,1.239138E0,2.8741274E0,2.2778626E-1,6.75067E0,-2.0098022E-1,-3.0221696E0,-2.4658489E-1,-4.358719E-1,-9.2129564E-1,2.0805335E-1,8.740763E-1,1.4295834E0,1.5185227E-1,1.8574967E0,3.5158226E-1,1.454127E-1,-9.131928E-2,-1.5834522E-1,-7.3811704E-1,-1.9383545E0,-1.1266774E-1,4.5380628E-1,1.3277961E0,6.4873296E-1,1.8481015E0,1.185458E0,-6.630707E-3,2.0697694E0,-4.7118887E-2,-1.6677095E-2,-1.0405522E-1,-1.9908905E-2,-6.9650507E-4,-3.6314774E-2,6.0475923E-2,1.489644E-2,7.856838E-2,1.5843201E-2,3.6222197E-2,6.3461303E-3,1.894684E-2,9.581204E-2,7.343292E-2,3.9960347E-2,1.0896623E-1,2.709427E-2],"categories":[],"categories_nodes":[],"categories_segments":[],"categories_sizes":[],"default_left":[0,0,0,0,0,0,0,0,0,0,0,0,0,0,0,0,0,0,0,0,0,0,0,0,0,0,0,0,0,0,0,0,0,0,0,0,0,0,0,0,0,0,0,0,0,0,0,0,0,0,0,0,0,0,0,0,0],"id":29,"left_children":[1,3,5,7,9,11,13,15,17,19,-1,21,23,-1,25,-1,27,-1,-1,29,31,33,35,-1,37,-1,-1,-1,-1,39,41,43,45,47,49,51,53,-1,55,-1,-1,-1,-1,-1,-1,-1,-1,-1,-1,-1,-1,-1,-1,-1,-1,-1,-1],"loss_changes":[3.1307395E3,6.690486E2,4.689574E2,1.4222473E2,3.267592E2,8.8703125E1,3.5701904E1,1.749768E1,2.8762817E0,4.068185E1,0E0,4.312378E0,4.4619446E0,0E0,6.311035E-2,0E0,8.061707E0,0E0,0E0,1.0306385E1,5.1743093E0,2.2058945E0,3.019867E0,0E0,4.9213867E0,0E0,0E0,0E0,0E0,4.2308083E0,1.1500931E0,1.746939E0,3.9981933E0,1.7181988E0,7.7720165E-1,9.757004E-1,2.6547623E0,0E0,4.9293137E-1,0E0,0E0,0E0,0E0,0E0,0E0,0E0,0E0,0E0,0E0,0E0,0E0,0E0,0E0,0E0,0E0,0E0,0E0],"parents":[2147483647,0,0,1,1,2,2,3,3,4,4,5,5,6,6,7,7,8,8,9,9,11,11,12,12,14,14,16,16,19,19,20,20,21,21,22,22,24,24,29,29,30,30,31,31,32,32,33,33,34,34,35,35,36,36,38,38],"right_children":[2,4,6,8,10,12,14,16,18,20,-1,22,24,-1,26,-1,28,-1,-1,30,32,34,36,-1,38,-1,-1,-1,-1,40,42,44,46,48,50,52,54,-1,56,-1,-1,-1,-1,-1,-1,-1,-1,-1,-1,-1,-1,-1,-1,-1,-1,-1,-1],"split_conditions":[3.619739E2,3.4987787E2,3.751197E2,3.575983E2,3.738648E2,3.6734732E2,3.8236615E2,3.4316782E2,3.6057742E2,3.579784E2,-5.457647E-1,3.6339703E2,3.7205978E2,2.2778626E-1,3.8472714E2,-2.0098022E-1,3E0,-2.4658489E-1,-4.358719E-1,3.565009E2,3.596902E2,7E0,3.645048E2,1.5185227E-1,3.727686E2,3.5158226E-1,1.454127E-1,-9.131928E-2,-1.5834522E-1,3.5569113E2,3.5740732E2,3.594886E2,3.593012E2,3.631065E2,3.634925E2,3.606494E2,8.227285E-1,-6.630707E-3,3.768645E2,-4.7118887E-2,-1.6677095E-2,-1.0405522E-1,-1.9908905E-2,-6.9650507E-4,-3.6314774E-2,6.0475923E-2,1.489644E-2,7.856838E-2,1.5843201E-2,3.6222197E-2,6.3461303E-3,1.894684E-2,9.581204E-2,7.343292E-2,3.9960347E-2,1.0896623E-1,2.709427E-2],"split_indices":[5,5,5,3,3,5,5,5,6,5,0,5,6,0,6,0,8,0,0,3,5,8,2,0,2,0,0,0,0,5,5,2,2,2,2,3,7,0,2,0,0,0,0,0,0,0,0,0,0,0,0,0,0,0,0,0,0],"split_type":[0,0,0,0,0,0,0,0,0,0,0,0,0,0,0,0,0,0,0,0,0,0,0,0,0,0,0,0,0,0,0,0,0,0,0,0,0,0,0,0,0,0,0,0,0,0,0,0,0,0,0,0,0,0,0,0,0],"sum_hessian":[4.63E2,2.64E2,1.99E2,1.36E2,1.28E2,1.39E2,6E1,1.24E2,1.2E1,1.26E2,2E0,7.9E1,6E1,4.2E1,1.8E1,4.5E1,7.9E1,7E0,5E0,6.2E1,6.4E1,2.9E1,5E1,5E1,1E1,1.6E1,2E0,1E1,6.9E1,5.4E1,8E0,2.8E1,3.6E1,8E0,2.1E1,1.6E1,3.4E1,1E0,9E0,3.5E1,1.9E1,7E0,1E0,2.5E1,3E0,5E0,3.1E1,6E0,2E0,1.8E1,3E0,1E0,1.5E1,1.8E1,1.6E1,8E0,1E0],"tree_param":{"num_deleted":"0","num_feature":"11","num_nodes":"57","size_leaf_vector":"1"}},{"base_weights":[-1.6119644E-2,-2.9367616E0,2.0474358E0,-3.75108E0,-1.0420272E0,8.418136E-1,4.3356023E0,-4.4287848E-1,-3.4472606E0,-9.193835E-2,-7.825298E-1,-8.3000277E-4,1.5027188E0,3.691444E0,6.5666227E0,-2.2197966E-1,-3.091686E0,-3.113505E-1,-8.312095E-1,2.4424592E-1,-4.901726E-1,9.6095765E-1,1.985461E0,1.566769E-1,2.1617284E-1,3.48618E-1,1.6002922E-1,-1.6367605E-1,-2.6086712E0,-4.715515E-1,1.22413635E-2,-5.4318346E-2,-6.793676E-1,-2.6733398E-2,6.515503E-1,1.0768043E0,2.1816254E-1,1.6068257E0,1.158429E-1,-2.779007E-2,-1.3284819E-1,-4.5448304E-3,-2.7199555E-2,-3.6958247E-2,-1.9291906E-2,-1.3209293E-2,5.9832176E-3,2.4679724E-2,8.169212E-2,4.25854E-2,7.411194E-2,-2.3101425E-2,3.5934146E-2,9.7189195E-2,6.558194E-2],"categories":[],"categories_nodes":[],"categories_segments":[],"categories_sizes":[],"default_left":[0,0,0,0,0,0,0,0,0,0,0,0,0,0,0,0,0,0,0,0,0,0,0,0,0,0,0,0,0,0,0,0,0,0,0,0,0,0,0,0,0,0,0,0,0,0,0,0,0,0,0,0,0,0,0],"id":30,"left_children":[1,3,5,7,9,11,13,-1,15,-1,17,19,21,23,25,-1,27,29,31,33,-1,35,37,-1,-1,-1,-1,-1,39,41,-1,-1,43,45,47,49,51,53,-1,-1,-1,-1,-1,-1,-1,-1,-1,-1,-1,-1,-1,-1,-1,-1,-1],"loss_changes":[2.838659E3,2.969602E2,7.577417E2,1.8046289E2,1.0966225E1,1.0135843E2,1.1228699E2,0E0,3.214441E1,0E0,8.1923485E-1,1.9698775E2,2.4768204E1,1.3250122E1,4.9989014E0,0E0,1.5557861E-1,6.500501E-1,8.8918877E-1,8.847103E0,0E0,4.0676003E0,2.9275818E0,0E0,0E0,0E0,0E0,0E0,1.6956787E0,8.842552E-2,0E0,0E0,2.2381687E-1,1.7349763E0,4.1586256E0,2.6618195E0,3.0556474E0,2.3549652E-1,0E0,0E0,0E0,0E0,0E0,0E0,0E0,0E0,0E0,0E0,0E0,0E0,0E0,0E0,0E0,0E0,0E0],"parents":[2147483647,0,0,1,1,2,2,3,3,4,4,5,5,6,6,8,8,10,10,11,11,12,12,13,13,14,14,16,16,17,17,18,18,19,19,21,21,22,22,28,28,29,29,32,32,33,33,34,34,35,35,36,36,37,37],"right_children":[2,4,6,8,10,12,14,-1,16,-1,18,20,22,24,26,-1,28,30,32,34,-1,36,38,-1,-1,-1,-1,-1,40,42,-1,-1,44,46,48,50,52,54,-1,-1,-1,-1,-1,-1,-1,-1,-1,-1,-1,-1,-1,-1,-1,-1,-1],"split_conditions":[3.575983E2,3.493539E2,3.725358E2,3.280039E2,3.54199E2,3.622018E2,3.825045E2,-4.4287848E-1,3.427117E2,-9.193835E-2,3.42911E2,3.639768E2,3.652391E2,3.775311E2,3.8446875E2,-2.2197966E-1,3.450398E2,3.560794E2,3.550781E2,3.60107E2,-4.901726E-1,3.659742E2,3.679897E2,1.566769E-1,2.1617284E-1,3.48618E-1,1.6002922E-1,-1.6367605E-1,3.42889E2,3.548391E2,1.22413635E-2,-5.4318346E-2,3.56184E2,3.585835E2,3.652391E2,3.631065E2,3.708992E2,3.652969E2,1.158429E-1,-2.779007E-2,-1.3284819E-1,-4.5448304E-3,-2.7199555E-2,-3.6958247E-2,-1.9291906E-2,-1.3209293E-2,5.9832176E-3,2.4679724E-2,8.169212E-2,4.25854E-2,7.411194E-2,-2.3101425E-2,3.5934146E-2,9.7189195E-2,6.558194E-2],"split_indices":[0,0,0,0,0,5,0,0,0,0,4,0,0,0,6,0,0,0,0,0,0,3,0,0,0,0,0,0,1,0,0,0,3,0,3,3,2,1,0,0,0,0,0,0,0,0,0,0,0,0,0,0,0,0,0],"split_type":[0,0,0,0,0,0,0,0,0,0,0,0,0,0,0,0,0,0,0,0,0,0,0,0,0,0,0,0,0,0,0,0,0,0,0,0,0,0,0,0,0,0,0,0,0,0,0,0,0,0,0,0,0,0,0],"sum_hessian":[4.69E2,1.94E2,2.75E2,1.35E2,5.9E1,1.81E2,9.4E1,6E0,1.29E2,1.3E1,4.6E1,8E1,1.01E2,7.5E1,1.9E1,3.1E1,9.8E1,5E0,4.1E1,7.9E1,1E0,4.9E1,5.2E1,4.3E1,3.2E1,1.6E1,3E0,6.7E1,3.1E1,4E0,1E0,1.3E1,2.8E1,4.8E1,3.1E1,4.2E1,7E0,2.7E1,2.5E1,1E0,3E1,1E0,3E0,2.2E1,6E0,1.8E1,3E1,2.8E1,3E0,2.9E1,1.3E1,3E0,4E0,1E1,1.7E1],"tree_param":{"num_deleted":"0","num_feature":"11","num_nodes":"55","size_leaf_vector":"1"}},{"base_weights":[-1.2630487E-3,-1.9513065E0,2.7773027E0,-3.4577084E0,-5.160307E-1,1.867418E0,4.6696815E0,-3.1863294E0,-3.963054E-1,-3.0396488E-1,-5.120214E-1,1.2417077E0,2.7482271E0,2.0109017E-1,3.0740383E-1,-1.8710504E-1,-2.8176458E0,-1.0187781E0,1.3000177E-1,8.3890325E-1,1.4981085E0,1.4550954E-1,1.6150546E0,-4.7419738E-2,-1.4264819E-1,-8.665423E-1,-1.15346685E-1,-9.148963E-2,5.612681E-1,9.0115356E-1,1.6230011E-1,1.9971654E0,1.1761061E0,1.9895935E-2,1.7174568E0,-6.5759026E-2,-3.928351E-2,1.242245E-4,-3.0692209E-2,3.6262E-2,8.040009E-3,3.2807566E-2,5.671441E-2,-3.7902833E-3,2.1915436E-2,4.8835754E-2,1.1180091E-1,6.6843815E-2,2.16956E-2,9.1711864E-2,2.2499848E-2],"categories":[],"categories_nodes":[],"categories_segments":[],"categories_sizes":[],"default_left":[0,0,0,0,0,0,0,0,0,0,0,0,0,0,0,0,0,0,0,0,0,0,0,0,0,0,0,0,0,0,0,0,0,0,0,0,0,0,0,0,0,0,0,0,0,0,0,0,0,0,0],"id":31,"left_children":[1,3,5,7,9,11,13,15,-1,17,-1,19,21,-1,-1,-1,23,25,27,29,31,-1,33,-1,-1,35,-1,37,39,41,43,45,47,-1,49,-1,-1,-1,-1,-1,-1,-1,-1,-1,-1,-1,-1,-1,-1,-1,-1],"loss_changes":[2.5357769E3,5.927937E2,3.235962E2,1.3723718E2,2.8972147E2,6.933682E1,3.4658447E1,1.5683838E1,0E0,4.3561157E1,0E0,6.902298E0,5.210663E0,0E0,0E0,0E0,2.6417236E0,8.394428E0,8.457268E0,1.2436638E0,5.203903E0,0E0,4.383278E-1,0E0,0E0,7.4453354E-1,0E0,2.8977056E0,1.8533459E0,9.692898E-1,2.9610327E-1,1.9595795E0,3.1189194E0,0E0,3.5871506E-1,0E0,0E0,0E0,0E0,0E0,0E0,0E0,0E0,0E0,0E0,0E0,0E0,0E0,0E0,0E0,0E0],"parents":[2147483647,0,0,1,1,2,2,3,3,4,4,5,5,6,6,7,7,9,9,11,11,12,12,16,16,17,17,18,18,19,19,20,20,22,22,25,25,27,27,28,28,29,29,30,30,31,31,32,32,34,34],"right_children":[2,4,6,8,10,12,14,16,-1,18,-1,20,22,-1,-1,-1,24,26,28,30,32,-1,34,-1,-1,36,-1,38,40,42,44,46,48,-1,50,-1,-1,-1,-1,-1,-1,-1,-1,-1,-1,-1,-1,-1,-1,-1,-1],"split_conditions":[3.6209756E2,3.4987787E2,3.751197E2,3.5655798E2,3.730794E2,3.6867502E2,3.8406738E2,3.4316782E2,-3.963054E-1,3.5597665E2,-5.120214E-1,3.61059E2,3.689439E2,2.0109017E-1,3.0740383E-1,-1.8710504E-1,3.3988712E2,1.2889256E0,3.5993503E2,3.607136E2,3.640996E2,1.4550954E-1,3.727686E2,-4.7419738E-2,-1.4264819E-1,3.366662E2,-1.15346685E-1,7E0,3.607714E2,5.9690636E-1,3.6339703E2,1.0177121E0,1.3936535E0,1.9895935E-2,3.775311E2,-6.5759026E-2,-3.928351E-2,1.242245E-4,-3.0692209E-2,3.6262E-2,8.040009E-3,3.2807566E-2,5.671441E-2,-3.7902833E-3,2.1915436E-2,4.8835754E-2,1.1180091E-1,6.6843815E-2,2.16956E-2,9.1711864E-2,2.2499848E-2],"split_indices":[5,5,5,6,4,5,5,5,0,5,0,4,4,0,0,0,6,7,5,4,2,0,2,0,0,4,0,8,2,7,5,7,7,0,2,0,0,0,0,0,0,0,0,0,0,0,0,0,0,0,0],"split_type":[0,0,0,0,0,0,0,0,0,0,0,0,0,0,0,0,0,0,0,0,0,0,0,0,0,0,0,0,0,0,0,0,0,0,0,0,0,0,0,0,0,0,0,0,0,0,0,0,0,0,0],"sum_hessian":[4.66E2,2.74E2,1.92E2,1.33E2,1.41E2,1.31E2,6.1E1,1.27E2,6E0,1.39E2,2E0,7.8E1,5.3E1,4.5E1,1.6E1,4.7E1,8E1,5.2E1,8.7E1,3.2E1,4.6E1,4.5E1,8E0,2E0,7.8E1,4.8E1,4E0,5.8E1,2.9E1,2.9E1,3E0,1.6E1,3E1,1E0,7E0,5E0,4.3E1,5E1,8E0,2E1,9E0,1.6E1,1.3E1,2E0,1E0,4E0,1.2E1,2.4E1,6E0,6E0,1E0],"tree_param":{"num_deleted":"0","num_feature":"11","num_nodes":"51","size_leaf_vector":"1"}},{"base_weights":[-5.0713617E-2,-1.8886999E0,2.6472487E0,-3.3166993E0,-3.3821058E-1,1.7083814E0,4.689777E0,-4.088769E-1,-3.0421214E0,-1.987717E-1,-4.6511766E-1,1.1850306E0,2.3286033E0,1.9640198E-1,6.1643014E0,-3.7193587E0,-2.4908507E0,-6.3506776E-1,2.970266E-1,7.510134E-1,1.4441549E0,2.3540611E0,2.1937562E-2,3.1800592E-1,7.088547E-2,-4.314725E0,-1.6243716E-1,-1.5712197E0,-1.3014922E-1,-8.661991E-1,-3.7918788E-1,-3.453282E-2,4.5573425E-1,-6.2489826E-2,8.135873E-1,1.4596947E0,1.93985E-2,1.0143145E-1,1.358502E-1,-6.376419E-2,-2.1974571E-1,-8.177613E-2,-2.3204803E-2,-4.42797E-2,-4.6844482E-3,1.1277772E-2,-2.11337E-2,8.714294E-4,-2.6844025E-2,1.9127816E-2,4.603699E-2,4.0344237E-3,-8.721161E-3,2.9643903E-2,4.8809163E-2,5.6744576E-2,7.965823E-2],"categories":[],"categories_nodes":[],"categories_segments":[],"categories_sizes":[],"default_left":[0,0,0,0,0,0,0,0,0,0,0,0,0,0,0,0,0,0,0,0,0,0,0,0,0,0,0,0,0,0,0,0,0,0,0,0,0,0,0,0,0,0,0,0,0,0,0,0,0,0,0,0,0,0,0,0,0],"id":32,"left_children":[1,3,5,7,9,11,13,-1,15,17,-1,19,21,-1,23,25,27,29,31,33,35,37,-1,-1,-1,39,-1,41,-1,43,45,47,49,51,53,55,-1,-1,-1,-1,-1,-1,-1,-1,-1,-1,-1,-1,-1,-1,-1,-1,-1,-1,-1,-1,-1],"loss_changes":[2.2761384E3,6.033269E2,3.4867334E2,1.6464722E2,1.6314438E2,3.91131E1,4.0931885E1,0E0,4.151013E1,2.8525875E1,0E0,7.012863E0,1.7576294E0,0E0,7.713501E0,2.5136719E0,3.9536133E0,3.8114777E0,3.2782407E0,1.5270596E0,1.5585327E-1,1.2206726E0,0E0,0E0,0E0,1.0070801E-3,0E0,2.4065018E-2,0E0,4.5640755E-1,1.0157642E0,5.5751365E-1,1.0769472E0,6.2153243E-2,3.9017487E-1,5.6037903E-2,0E0,0E0,0E0,0E0,0E0,0E0,0E0,0E0,0E0,0E0,0E0,0E0,0E0,0E0,0E0,0E0,0E0,0E0,0E0,0E0,0E0],"parents":[2147483647,0,0,1,1,2,2,3,3,4,4,5,5,6,6,8,8,9,9,11,11,12,12,14,14,15,15,16,16,17,17,18,18,19,19,20,20,21,21,25,25,27,27,29,29,30,30,31,31,32,32,33,33,34,34,35,35],"right_children":[2,4,6,8,10,12,14,-1,16,18,-1,20,22,-1,24,26,28,30,32,34,36,38,-1,-1,-1,40,-1,42,-1,44,46,48,50,52,54,56,-1,-1,-1,-1,-1,-1,-1,-1,-1,-1,-1,-1,-1,-1,-1,-1,-1,-1,-1,-1,-1],"split_conditions":[3.6209756E2,3.521381E2,3.757067E2,3.332574E2,3.638311E2,3.672599E2,3.825045E2,-4.088769E-1,3.433949E2,3.581811E2,-4.6511766E-1,3.639768E2,3.870462E2,1.9640198E-1,3.8446875E2,3.417398E2,3.366662E2,3.554547E2,3.594886E2,3.607714E2,3.6817487E2,3.726063E2,2.1937562E-2,3.1800592E-1,7.088547E-2,3.391588E2,-1.6243716E-1,3.357706E2,-1.3014922E-1,3.5597665E2,3.555457E2,7E0,3.652969E2,3.596949E2,5.545987E-1,2E0,1.93985E-2,1.0143145E-1,1.358502E-1,-6.376419E-2,-2.1974571E-1,-8.177613E-2,-2.3204803E-2,-4.42797E-2,-4.6844482E-3,1.1277772E-2,-2.11337E-2,8.714294E-4,-2.6844025E-2,1.9127816E-2,4.603699E-2,4.0344237E-3,-8.721161E-3,2.9643903E-2,4.8809163E-2,5.6744576E-2,7.965823E-2],"split_indices":[5,0,0,0,0,0,0,0,0,0,0,0,4,0,6,0,4,0,0,0,5,0,0,0,0,6,0,4,0,5,0,8,4,0,7,9,0,0,0,0,0,0,0,0,0,0,0,0,0,0,0,0,0,0,0,0,0],"split_type":[0,0,0,0,0,0,0,0,0,0,0,0,0,0,0,0,0,0,0,0,0,0,0,0,0,0,0,0,0,0,0,0,0,0,0,0,0,0,0,0,0,0,0,0,0,0,0,0,0,0,0,0,0,0,0,0,0],"sum_hessian":[4.57E2,2.72E2,1.85E2,1.41E2,1.31E2,1.28E2,5.7E1,6E0,1.35E2,1.3E2,1E0,7.1E1,5.7E1,4E1,1.7E1,5.8E1,7.7E1,6.9E1,6.1E1,2.8E1,4.3E1,5.6E1,1E0,1.6E1,1E0,2.2E1,3.6E1,1E1,6.7E1,3.5E1,3.4E1,2E1,4.1E1,2E0,2.6E1,4.2E1,1E0,3.3E1,2.3E1,1E0,2.1E1,9E0,1E0,3.4E1,1E0,2E0,3.2E1,1.9E1,1E0,3.7E1,4E0,1E0,1E0,1.3E1,1.3E1,1.5E1,2.7E1],"tree_param":{"num_deleted":"0","num_feature":"11","num_nodes":"57","size_leaf_vector":"1"}},{"base_weights":[-4.7112063E-2,-1.918573E0,2.5789025E0,-3.1098943E0,-4.210875E-1,1.4398534E0,3.989437E0,-4.080274E-1,-2.848231E0,-2.758539E-1,-4.534897E-1,9.067225E-1,1.9564986E0,3.4460127E0,2.9405594E-1,-1.892713E-1,-2.5755706E0,-8.032801E-1,1.0157098E-1,6.7382026E-1,1.1495397E0,1.5499516E0,2.4170406E0,1.8123238E-1,1.07918344E-1,-1.4071463E-1,-1.0729642E-1,-5.7380356E-2,-5.8068943E-1,3.9342023E-2,5.7481386E-2,7.620734E-1,-4.0390015E-1,2.5838215E-3,1.2450117E0,1.6159432E0,-1.2394714E-2,1.2516785E-1,4.891866E-2,-3.0792138E-2,-1.1937459E-3,-1.21063925E-2,8.376471E-3,5.387039E-2,2.8315125E-2,-2.8565979E-2,-1.726532E-3,-2.3109436E-3,2.5047304E-3,9.8723225E-2,5.2339103E-2,1.4691926E-2,8.251094E-2],"categories":[],"categories_nodes":[],"categories_segments":[],"categories_sizes":[],"default_left":[0,0,0,0,0,0,0,0,0,0,0,0,0,0,0,0,0,0,0,0,0,0,0,0,0,0,0,0,0,0,0,0,0,0,0,0,0,0,0,0,0,0,0,0,0,0,0,0,0,0,0,0,0],"id":33,"left_children":[1,3,5,7,9,11,13,-1,15,17,-1,19,21,23,-1,-1,25,27,29,31,33,35,37,-1,-1,-1,-1,-1,39,41,-1,43,45,47,49,51,-1,-1,-1,-1,-1,-1,-1,-1,-1,-1,-1,-1,-1,-1,-1,-1,-1],"loss_changes":[2.3147551E3,4.8928662E2,3.0916272E2,1.7895715E2,1.5199623E2,2.8524338E1,6.916846E1,0E0,2.7814087E1,2.4367374E1,0E0,2.3923645E0,6.551468E0,8.277954E0,0E0,0E0,5.9608154E0,3.2424393E0,4.6505733E0,3.2562819E0,2.8438416E0,4.197151E0,5.311127E-1,0E0,0E0,0E0,0E0,0E0,6.312351E-1,2.530145E0,0E0,1.1801243E0,1.6579086E-1,9.271279E-3,1.4035454E0,9.19899E-1,0E0,0E0,0E0,0E0,0E0,0E0,0E0,0E0,0E0,0E0,0E0,0E0,0E0,0E0,0E0,0E0,0E0],"parents":[2147483647,0,0,1,1,2,2,3,3,4,4,5,5,6,6,8,8,9,9,11,11,12,12,13,13,16,16,17,17,18,18,19,19,20,20,21,21,22,22,28,28,29,29,31,31,32,32,33,33,34,34,35,35],"right_children":[2,4,6,8,10,12,14,-1,16,18,-1,20,22,24,-1,-1,26,28,30,32,34,36,38,-1,-1,-1,-1,-1,40,42,-1,44,46,48,50,52,-1,-1,-1,-1,-1,-1,-1,-1,-1,-1,-1,-1,-1,-1,-1,-1,-1],"split_conditions":[3.619739E2,3.521381E2,8E0,3.332574E2,3.638311E2,3.657375E2,3.825045E2,-4.080274E-1,3.427117E2,3.565009E2,-4.534897E-1,3.631065E2,3.7117932E2,1.1E1,2.9405594E-1,-1.892713E-1,3.450398E2,3.547816E2,3.652391E2,3.652969E2,3.623708E2,3.689439E2,3.689439E2,1.8123238E-1,1.07918344E-1,-1.4071463E-1,-1.0729642E-1,-5.7380356E-2,3.56184E2,3.582647E2,5.7481386E-2,3.558364E2,3.651822E2,3.607136E2,3.6404794E2,3.623708E2,-1.2394714E-2,1.2516785E-1,4.891866E-2,-3.0792138E-2,-1.1937459E-3,-1.21063925E-2,8.376471E-3,5.387039E-2,2.8315125E-2,-2.8565979E-2,-1.726532E-3,-2.3109436E-3,2.5047304E-3,9.8723225E-2,5.2339103E-2,1.4691926E-2,8.251094E-2],"split_indices":[5,0,8,0,0,0,0,0,0,0,0,3,5,8,0,0,0,0,3,2,0,2,4,0,0,0,0,0,3,0,0,4,0,0,5,2,0,0,0,0,0,0,0,0,0,0,0,0,0,0,0,0,0],"split_type":[0,0,0,0,0,0,0,0,0,0,0,0,0,0,0,0,0,0,0,0,0,0,0,0,0,0,0,0,0,0,0,0,0,0,0,0,0,0,0,0,0,0,0,0,0,0,0,0,0,0,0,0,0],"sum_hessian":[4.69E2,2.74E2,1.95E2,1.52E2,1.22E2,1.09E2,8.6E1,6E0,1.46E2,1.21E2,1E0,5.5E1,5.4E1,6.9E1,1.7E1,3E1,1.16E2,5E1,7.1E1,3E1,2.5E1,3.1E1,2.3E1,5.9E1,1E1,7.1E1,4.5E1,1.8E1,3.2E1,6.8E1,3E0,2.8E1,2E0,2E0,2.3E1,3E1,1E0,2.1E1,2E0,3E1,2E0,2.1E1,4.7E1,9E0,1.9E1,1E0,1E0,1E0,1E0,3E0,2E1,1E0,2.9E1],"tree_param":{"num_deleted":"0","num_feature":"11","num_nodes":"53","size_leaf_vector":"1"}},{"base_weights":[8.117034E-2,-2.208988E0,1.8300269E0,-2.9238002E0,-5.638438E-1,7.3131526E-1,3.6923943E0,-4.4191546E0,-2.5090437E0,-4.9134883E-1,-5.2127074E-2,8.464241E-1,-4.421524E-1,3.1438704E0,5.5647383E0,-1.9072108E-1,-3.2190216E-1,-1.3680176E-1,-1.9574314E0,-7.2135377E-1,-2.8329977E-1,4.3565577E-1,1.6911803E0,2.5652754E0,1.7805567E-1,3.1486627E-1,1.839346E-1,-2.1182252E-2,-9.9504136E-2,-4.1405234E-1,-3.8873825E-2,-4.2388386E-1,1.5629196E-1,9.357375E-2,7.033011E-1,1.3629626E0,1.9238325E0,2.6187348E0,1.8691255E-2,-3.209625E-2,1.8132782E-2,-2.4722004E-2,-1.1489296E-2,2.9878998E-2,-1.1399842E-2,2.3677675E-2,2.463718E-3,4.0254876E-2,1.8334007E-2,1.9857788E-2,6.933282E-2,1.0222494E-1,5.7032015E-2,1.3352157E-1,2.2818757E-2],"categories":[],"categories_nodes":[],"categories_segments":[],"categories_sizes":[],"default_left":[0,0,0,0,0,0,0,0,0,0,0,0,0,0,0,0,0,0,0,0,0,0,0,0,0,0,0,0,0,0,0,0,0,0,0,0,0,0,0,0,0,0,0,0,0,0,0,0,0,0,0,0,0,0,0],"id":34,"left_children":[1,3,5,7,9,11,13,15,17,19,-1,21,-1,23,25,-1,-1,-1,27,29,31,33,35,37,-1,-1,-1,-1,-1,39,-1,41,43,45,47,49,51,53,-1,-1,-1,-1,-1,-1,-1,-1,-1,-1,-1,-1,-1,-1,-1,-1,-1],"loss_changes":[1.7943483E3,2.2648956E2,5.170356E2,7.264026E1,1.5699387E0,1.8492206E2,7.904553E1,9.627502E0,8.167175E0,2.3796654E0,0E0,5.4783066E1,0E0,8.970825E0,4.4679565E0,0E0,0E0,0E0,9.0971375E-1,1.09249115E-1,1.9202378E0,9.913866E0,1.3486481E0,3.1214294E0,0E0,0E0,0E0,0E0,0E0,1.2947409E0,0E0,2.0136547E-1,1.4929025E0,8.014765E-1,1.795063E0,2.1369934E-2,3.1409454E-1,2.5820312E0,0E0,0E0,0E0,0E0,0E0,0E0,0E0,0E0,0E0,0E0,0E0,0E0,0E0,0E0,0E0,0E0,0E0],"parents":[2147483647,0,0,1,1,2,2,3,3,4,4,5,5,6,6,7,7,8,8,9,9,11,11,13,13,14,14,18,18,19,19,20,20,21,21,22,22,23,23,29,29,31,31,32,32,33,33,34,34,35,35,36,36,37,37],"right_children":[2,4,6,8,10,12,14,16,18,20,-1,22,-1,24,26,-1,-1,-1,28,30,32,34,36,38,-1,-1,-1,-1,-1,40,-1,42,44,46,48,50,52,54,-1,-1,-1,-1,-1,-1,-1,-1,-1,-1,-1,-1,-1,-1,-1,-1,-1],"split_conditions":[3.581811E2,3.521381E2,3.726063E2,3.417398E2,3.585058E2,3.9456909E0,3.825045E2,3.6057742E2,3.450398E2,3.551211E2,-5.2127074E-2,3.652391E2,-4.421524E-1,3.764078E2,3.818488E2,-1.9072108E-1,-3.2190216E-1,-1.3680176E-1,3.42889E2,3.499372E2,4.8239353E-1,3.61059E2,3.679897E2,2.4188867E0,1.7805567E-1,3.1486627E-1,1.839346E-1,-2.1182252E-2,-9.9504136E-2,3E0,-3.8873825E-2,3.563787E2,3E0,3.554412E2,3.639768E2,2.2652204E-1,3.727494E2,3.766603E2,1.8691255E-2,-3.209625E-2,1.8132782E-2,-2.4722004E-2,-1.1489296E-2,2.9878998E-2,-1.1399842E-2,2.3677675E-2,2.463718E-3,4.0254876E-2,1.8334007E-2,1.9857788E-2,6.933282E-2,1.0222494E-1,5.7032015E-2,1.3352157E-1,2.2818757E-2],"split_indices":[0,0,0,0,3,7,0,6,0,2,0,0,0,1,3,0,0,0,1,3,7,0,0,7,0,0,0,0,0,9,0,6,9,6,1,7,2,0,0,0,0,0,0,0,0,0,0,0,0,0,0,0,0,0,0],"split_type":[0,0,0,0,0,0,0,0,0,0,0,0,0,0,0,0,0,0,0,0,0,0,0,0,0,0,0,0,0,0,0,0,0,0,0,0,0,0,0,0,0,0,0,0,0,0,0,0,0,0,0,0,0,0,0],"sum_hessian":[4.46E2,1.93E2,2.53E2,1.34E2,5.9E1,1.6E2,9.3E1,2.7E1,1.07E2,5.3E1,